{"learner":{"attributes":{"best_iteration":"499","best_ntree_limit":"500","best_score":"44.73967561295996","scikit_learn":"{\"n_estimators\": 500, \"objective\": \"reg:squarederror\", \"max_depth\": 5, \"max_leaves\": null, \"max_bin\": null, \"grow_policy\": null, \"learning_rate\": 0.01, \"verbosity\": null, \"booster\": null, \"tree_method\": \"gpu_hist\", \"gamma\": null, \"min_child_weight\": null, \"max_delta_step\": null, \"subsample\": 0.8, \"sampling_method\": null, \"colsample_bytree\": 0.8, \"colsample_bylevel\": null, \"colsample_bynode\": null, \"reg_alpha\": null, \"reg_lambda\": null, \"scale_pos_weight\": null, \"base_score\": null, \"missing\": NaN, \"num_parallel_tree\": null, \"random_state\": 42, \"n_jobs\": 4, \"monotone_constraints\": null, \"interaction_constraints\": null, \"importance_type\": null, \"gpu_id\": null, \"validate_parameters\": null, \"predictor\": \"gpu_predictor\", \"enable_categorical\": false, \"feature_types\": null, \"max_cat_to_onehot\": null, \"max_cat_threshold\": null, \"eval_metric\": null, \"early_stopping_rounds\": null, \"callbacks\": null, \"evals_result_\": {\"validation_0\": {\"rmse\": [1514.855995444652, 1500.67738909467, 1485.731286238739, 1470.9326019915104, 1456.2937035472419, 1441.7953040478872, 1427.452942031658, 1413.2385508885152, 1399.1822995857904, 1385.2404059379498, 1371.5022197503063, 1357.8502657787774, 1345.1273414441148, 1332.5189601358159, 1319.2645978371145, 1306.7668459875, 1293.739159792172, 1280.8433705025743, 1268.0618305657504, 1255.4745057319692, 1242.9839202904304, 1230.6619349076454, 1218.4725653143114, 1206.371813326787, 1194.3673665782144, 1182.471648444004, 1170.714319568598, 1159.040371870121, 1148.0466290527222, 1136.6138312473852, 1125.331496630948, 1114.1247227760143, 1103.0763694563407, 1093.184150915953, 1082.8373827243693, 1072.0554405545645, 1061.3497377932708, 1050.7631868321746, 1040.9108285823477, 1030.5904142442027, 1020.9924801909648, 1010.8142065506345, 1001.3986960188927, 992.098041205577, 982.2063854024373, 972.4183103688976, 962.7306203120162, 954.1041768860579, 945.1891535638305, 935.7633542986136, 926.4431793521899, 917.2595586369588, 908.1123642217415, 899.0883066188474, 890.1233483098842, 881.2783185039457, 872.4957316833147, 864.6881628293919, 856.5529741822851, 848.0298877359427, 840.4854836983482, 832.1531590202392, 823.8539476308871, 815.6503638433821, 807.5189468140521, 799.4683418184023, 791.5065729122042, 784.4633730491238, 776.6745654753606, 768.9391856393283, 761.271222677907, 754.5000908376929, 747.0189304313892, 739.5987180589517, 732.2153474927057, 725.3418151576369, 718.1436088174337, 711.0325087247982, 703.9849054869356, 696.9787294267275, 690.027718778883, 683.1651104446677, 676.3882929958826, 670.1807831617471, 663.5455793063282, 656.9464286708709, 651.1549208786157, 645.4189388142773, 639.514178766933, 633.1666810467902, 626.8591806866525, 620.612495336517, 614.4700555348055, 608.8334124023224, 603.2207843366921, 597.2306873926356, 591.9851422651836, 586.1274511614084, 580.3065360414818, 574.5422034224755, 568.8679092430004, 563.2053327062744, 557.6494385675562, 552.1359094478444, 547.003232559002, 541.6094844098485, 536.841329117565, 531.5088651625779, 526.8764806601533, 521.9888660466639, 516.8277487675082, 511.73442201659736, 507.3020979915532, 502.7442664389095, 497.75729175801854, 492.81788381630236, 488.5569887011519, 483.7139292286927, 479.35520855248654, 474.9465207485215, 470.69136337946594, 466.0592836690275, 462.057623040055, 457.4814315584556, 452.94875009464226, 448.802790237794, 444.9590586306779, 440.5877505306841, 436.26724009197244, 431.97881141406623, 427.7223255730118, 423.4983637604694, 419.3060362835783, 415.16629974125374, 411.0881501426817, 407.06600437493984, 403.37632944799105, 399.3999663709584, 395.46843583498645, 392.1097124979741, 388.7673785761201, 385.2614474013574, 381.49943616546375, 377.76056454048785, 374.04972766322135, 370.3779958627215, 366.7529083539079, 363.5470864953606, 360.0008124108412, 356.4907773579866, 352.9959969762609, 349.5580439135001, 346.13265290888734, 342.7366499418663, 339.7491801928563, 336.4254994687774, 333.1544020766603, 330.2558927231327, 327.0257722311995, 324.11254640629903, 321.3148410589728, 318.4539300927442, 315.35854917378634, 312.27547722130106, 309.5768621104598, 306.55617673951866, 304.0353250318477, 301.0826270980558, 298.17196768816063, 295.6250372366227, 293.10023050583357, 290.266675611902, 287.4842771204015, 284.7018137743372, 281.9572749148717, 279.21881178257104, 276.9530384491625, 274.27772312602525, 271.9651755328556, 269.74743968788664, 267.1647180719379, 264.84266446681204, 262.29712295531294, 259.8006404021353, 257.3001488004204, 255.23001829882696, 252.77195814452233, 250.3720808471829, 247.9855106169565, 245.62711776963738, 243.27772813080176, 241.20360457583328, 238.90182288355342, 236.61883629174687, 234.34491031470296, 232.1232609806496, 229.90280275720804, 227.72446749878918, 225.56292344259907, 223.42281494988802, 221.30419146047583, 219.55385086867912, 217.8293203129828, 215.76190279569482, 213.73706650781406, 211.73171453902935, 209.7481337878247, 207.78846558552314, 205.81389502055052, 204.20390234878383, 202.29092262935134, 200.3952337859602, 198.51162281478565, 196.64682451099614, 195.1316369232509, 193.30062720936533, 191.47914027522276, 189.69397192717437, 187.9157560880228, 186.4251588244656, 184.68643848730179, 183.16668764455224, 181.7246851894933, 180.34913022296575, 178.67243301373549, 177.02039149400912, 175.6094871791698, 174.1959442327891, 172.8904310913643, 171.5882577360684, 170.0221895589531, 168.46774512286743, 167.1307386938309, 165.9024271863075, 164.38825271244755, 162.8934077690103, 161.61490891370343, 160.15787597766683, 158.7181848659789, 157.56202965693421, 156.14420806561563, 154.98539415152212, 153.59600632015406, 152.2299442993682, 150.86213251829975, 149.51621328714054, 148.4567929214897, 147.12752380095478, 145.81206987349643, 144.51090508315616, 143.50989380296713, 142.2310082528829, 140.98602905673454, 140.00211072809998, 138.96909881979937, 138.01696670640007, 136.80387219110068, 135.59075905405288, 134.63412135404937, 133.71847616801756, 132.55790705201073, 131.6048379361921, 130.47098911165776, 129.57607126153576, 128.71854026014523, 127.6075445617723, 126.51353661247101, 125.65231494320604, 124.58542110015802, 123.53068471468038, 122.47689687082773, 121.44453742868191, 120.63475770738634, 119.62556063103834, 118.62727069055775, 117.6374985024658, 116.86716584391075, 115.89050050750363, 114.92633893154675, 113.971898460158, 113.20919860651678, 112.2835555147371, 111.57365654559521, 110.8680939336148, 109.96604978700037, 109.30082067524687, 108.64442223763768, 107.76626057738737, 107.06782974792803, 106.22235914817198, 105.37888833303563, 104.5435645320576, 103.72089563583106, 102.90218723330982, 102.09210706519322, 101.50375648811989, 100.87205131716311, 100.25237733146763, 99.48008535348593, 98.7100261722661, 98.13603492959037, 97.57633165810864, 96.83052687295648, 96.10869725434186, 95.53310403736656, 94.81679441240519, 94.11018248877032, 93.5552848281634, 93.03646796447636, 92.55386187742232, 91.88194887373601, 91.41063165971613, 90.8878695246315, 90.23321722730873, 89.58110017328228, 88.91776895899984, 88.26846805148001, 87.63081302835742, 86.99985915190915, 86.368035984887, 85.89899582402035, 85.30408702357313, 84.70751174952206, 84.11710223924729, 83.52564904740545, 82.95718690653857, 82.3747367572123, 81.81082359572348, 81.25757345158253, 80.70756527801586, 80.16298636943317, 79.62719429590607, 79.11003910084258, 78.59070397104503, 78.18940704263316, 77.66783008670758, 77.15629969960031, 76.65027879159148, 76.16411916272745, 75.67516833706847, 75.19670874004937, 74.83673075229612, 74.480505533697, 74.02947643171565, 73.67583488915807, 73.36852396435236, 72.9196238939922, 72.46892805320353, 72.17825608239896, 71.75932870342999, 71.48517208932343, 71.05676542639438, 70.62328176589794, 70.19692127039971, 69.77617420973505, 69.36844182328791, 68.9634997604694, 68.68205814751065, 68.43345674913402, 68.1497401615725, 67.91086810125826, 67.52789656145401, 67.29405981070319, 67.04711878852216, 66.68082670232113, 66.30926792694225, 65.95071078837442, 65.5961518348741, 65.25163544190548, 64.9081562937395, 64.69705924128556, 64.49706290561626, 64.1566615515235, 63.819429303164966, 63.62836745173202, 63.3040324081035, 63.084991006646106, 62.77872207379381, 62.46998504727643, 62.16868771483627, 61.9793069700845, 61.66842647767786, 61.36890157914485, 61.08216746306021, 60.80014292277268, 60.504049284442964, 60.21932807519564, 59.93286799835569, 59.65713213419488, 59.37221616400405, 59.21084852417156, 58.93508742478792, 58.76963291742642, 58.48140006304152, 58.20773873336423, 57.95662974012681, 57.81976423435995, 57.56495850160165, 57.314917492952915, 57.082048326756976, 56.846193236209096, 56.60918817851574, 56.376428119644025, 56.23568072901006, 56.00352122241629, 55.772785338282254, 55.56111169782038, 55.431441364285035, 55.19840610424544, 54.97734150798957, 54.87195405903131, 54.75311787838134, 54.54549499775818, 54.33926789454487, 54.222205266054196, 54.12575756073121, 53.932204850102984, 53.72322171810549, 53.51980046625924, 53.32274253229481, 53.14295770159128, 52.93631528526196, 52.73339443366313, 52.556667505995165, 52.45765274737045, 52.360931342952014, 52.19190912639587, 52.00837765550659, 51.818039751204495, 51.731772864647084, 51.644659466135494, 51.47771206477524, 51.40020895220729, 51.23405198652137, 51.07012506811241, 50.906677179516485, 50.745311159819664, 50.57358581901457, 50.424933328092145, 50.35526628893835, 50.199154754983454, 50.133527725915336, 50.068487161114916, 49.91146267468047, 49.83652797097968, 49.6796074861844, 49.515429551750785, 49.35086292557391, 49.28711388218852, 49.21758462949184, 49.15933220064285, 48.9918515117343, 48.85301560113548, 48.71961406101512, 48.659451586570825, 48.508133427197585, 48.36958657825937, 48.23347969221039, 48.1020457430779, 47.98059813763216, 47.84211422374231, 47.78888054078855, 47.64855927021215, 47.52194088490194, 47.47610681677106, 47.42865482516637, 47.30604464598316, 47.26087818576281, 47.21940375292513, 47.179103054767566, 47.057280256439086, 47.01273039543133, 46.879376036080714, 46.835969755760416, 46.71720031050934, 46.60211827729807, 46.55899313330585, 46.45652974505206, 46.34051822604913, 46.30222252253526, 46.19905143450964, 46.09537920229686, 45.98643604878875, 45.8595494929613, 45.75306673634959, 45.63946107830556, 45.606138801447706, 45.514674619690496, 45.480956715186316, 45.444097507149046, 45.35301267624102, 45.24276563537432, 45.208789495935825, 45.11558858537582, 45.016828341891724, 44.98557528146914, 44.94547380922202, 44.86208183350435, 44.83121637983134, 44.73967561295996]}}, \"_estimator_type\": \"regressor\"}"},"feature_names":[],"feature_types":[],"gradient_booster":{"model":{"gbtree_model_param":{"num_parallel_tree":"1","num_trees":"500","size_leaf_vector":"0"},"tree_info":[0,0,0,0,0,0,0,0,0,0,0,0,0,0,0,0,0,0,0,0,0,0,0,0,0,0,0,0,0,0,0,0,0,0,0,0,0,0,0,0,0,0,0,0,0,0,0,0,0,0,0,0,0,0,0,0,0,0,0,0,0,0,0,0,0,0,0,0,0,0,0,0,0,0,0,0,0,0,0,0,0,0,0,0,0,0,0,0,0,0,0,0,0,0,0,0,0,0,0,0,0,0,0,0,0,0,0,0,0,0,0,0,0,0,0,0,0,0,0,0,0,0,0,0,0,0,0,0,0,0,0,0,0,0,0,0,0,0,0,0,0,0,0,0,0,0,0,0,0,0,0,0,0,0,0,0,0,0,0,0,0,0,0,0,0,0,0,0,0,0,0,0,0,0,0,0,0,0,0,0,0,0,0,0,0,0,0,0,0,0,0,0,0,0,0,0,0,0,0,0,0,0,0,0,0,0,0,0,0,0,0,0,0,0,0,0,0,0,0,0,0,0,0,0,0,0,0,0,0,0,0,0,0,0,0,0,0,0,0,0,0,0,0,0,0,0,0,0,0,0,0,0,0,0,0,0,0,0,0,0,0,0,0,0,0,0,0,0,0,0,0,0,0,0,0,0,0,0,0,0,0,0,0,0,0,0,0,0,0,0,0,0,0,0,0,0,0,0,0,0,0,0,0,0,0,0,0,0,0,0,0,0,0,0,0,0,0,0,0,0,0,0,0,0,0,0,0,0,0,0,0,0,0,0,0,0,0,0,0,0,0,0,0,0,0,0,0,0,0,0,0,0,0,0,0,0,0,0,0,0,0,0,0,0,0,0,0,0,0,0,0,0,0,0,0,0,0,0,0,0,0,0,0,0,0,0,0,0,0,0,0,0,0,0,0,0,0,0,0,0,0,0,0,0,0,0,0,0,0,0,0,0,0,0,0,0,0,0,0,0,0,0,0,0,0,0,0,0,0,0,0,0,0,0,0,0,0,0,0,0,0,0,0,0,0,0,0,0,0,0,0,0,0,0,0,0,0,0,0,0,0,0,0,0,0,0,0,0,0,0,0,0,0,0,0,0,0,0,0,0,0,0,0,0,0,0,0,0,0,0,0,0,0,0,0,0,0,0,0,0],"trees":[{"base_weights":[8.2403656E2,1.7856674E2,2.5684019E3,2.5213856E1,8.8474713E2,1.9769833E3,3.1260688E3,4.5180717E0,2.7039545E2,7.018696E2,1.3704255E3,1.6830486E3,2.3149019E3,2.8294495E3,3.4125532E3,3.0769005E-1,9.4350624E1,2.2726904E2,5.205712E2,5.41875E2,9.263274E2,1.0860371E3,1.535398E3,1.3765176E3,1.9294594E3,2.0456969E3,2.4945254E3,2.5144068E1,2.9195112E3,3.2734475E3,3.6107452E1,-3.889256E-3,2.9911062E-1,7.283709E-1,1.3032106E0,1.749307E0,2.8484945E0,4.2248154E0,5.543274E0,4.3595753E0,7.1250415E0,7.568015E0,1.0169483E1,9.379449E0,1.2512809E1,1.4078833E1,1.7462854E1,1.2310695E1,1.5728361E1,1.7856524E1,2.0957317E1,1.8650183E1,2.1761574E1,2.3668335E1,2.6447727E1,2.809303E1,3.0461935E1,3.0761265E1,3.33991E1],"categories":[],"categories_nodes":[],"categories_segments":[],"categories_sizes":[],"default_left":[0,0,0,0,0,0,0,0,0,0,0,0,0,0,0,0,0,0,0,0,0,0,0,0,0,0,0,0,0,0,0,0,0,0,0,0,0,0,0,0,0,0,0,0,0,0,0,0,0,0,0,0,0,0,0,0,0,0,0],"id":0,"left_children":[1,3,5,7,9,11,13,15,17,19,21,23,25,27,29,31,33,35,37,39,41,43,45,47,49,51,53,-1,55,57,-1,-1,-1,-1,-1,-1,-1,-1,-1,-1,-1,-1,-1,-1,-1,-1,-1,-1,-1,-1,-1,-1,-1,-1,-1,-1,-1,-1,-1],"loss_changes":[2.177738E10,1.528992E9,1.7167729E9,5.8864868E7,2.2277491E8,2.4819302E8,2.1867725E8,4.0466465E6,9.624324E6,6.528896E7,3.0610816E7,1.0014387E8,5.185997E7,3.0281728E7,2.5731072E7,2.1079088E5,3.611825E5,2.276716E6,2.02876E5,1.9063232E7,1.092128E7,5.091008E6,9.185344E6,1.5481728E7,1.4238976E7,7.185152E6,7.208448E6,0E0,5.752832E6,3.61472E5,0E0,0E0,0E0,0E0,0E0,0E0,0E0,0E0,0E0,0E0,0E0,0E0,0E0,0E0,0E0,0E0,0E0,0E0,0E0,0E0,0E0,0E0,0E0,0E0,0E0,0E0,0E0,0E0,0E0],"parents":[2147483647,0,0,1,1,2,2,3,3,4,4,5,5,6,6,7,7,8,8,9,9,10,10,11,11,12,12,13,13,14,14,15,15,16,16,17,17,18,18,19,19,20,20,21,21,22,22,23,23,24,24,25,25,26,26,28,28,29,29],"right_children":[2,4,6,8,10,12,14,16,18,20,22,24,26,28,30,32,34,36,38,40,42,44,46,48,50,52,54,-1,56,58,-1,-1,-1,-1,-1,-1,-1,-1,-1,-1,-1,-1,-1,-1,-1,-1,-1,-1,-1,-1,-1,-1,-1,-1,-1,-1,-1,-1,-1],"split_conditions":[1.4036135E-1,-7.78405E-2,1.3100919E0,-3.8080898E-1,1.2411019E0,8.3679336E-1,2.1145828E0,-5.749441E-1,-3.1097785E-1,-2.6095772E-1,-3.1097785E-1,5.618274E-1,6.5955204E-1,8.2460546E-1,2.6474361E0,-6.449504E-1,-5.4486835E-1,-4.8002744E-1,-2.1857953E-1,5.72218E-1,3.1748918E-1,1.7446765E0,2.1123567E0,6.469306E-1,9.050213E-1,1.9382235E0,2.010583E0,2.5144068E1,1.3882957E0,1.138063E0,3.6107452E1,-3.889256E-3,2.9911062E-1,7.283709E-1,1.3032106E0,1.749307E0,2.8484945E0,4.2248154E0,5.543274E0,4.3595753E0,7.1250415E0,7.568015E0,1.0169483E1,9.379449E0,1.2512809E1,1.4078833E1,1.7462854E1,1.2310695E1,1.5728361E1,1.7856524E1,2.0957317E1,1.8650183E1,2.1761574E1,2.3668335E1,2.6447727E1,2.809303E1,3.0461935E1,3.0761265E1,3.33991E1],"split_indices":[0,1,0,1,1,3,0,1,0,0,0,0,0,3,0,1,0,0,0,1,1,1,1,1,0,1,1,0,3,3,0,0,0,0,0,0,0,0,0,0,0,0,0,0,0,0,0,0,0,0,0,0,0,0,0,0,0,0,0],"split_type":[0,0,0,0,0,0,0,0,0,0,0,0,0,0,0,0,0,0,0,0,0,0,0,0,0,0,0,0,0,0,0,0,0,0,0,0,0,0,0,0,0,0,0,0,0,0,0,0,0,0,0,0,0,0,0,0,0,0,0],"sum_hessian":[1.9341E4,1.4118E4,5.223E3,1.16E4,2.518E3,2.537E3,2.686E3,1.0698E4,9.02E2,1.831E3,6.87E2,1.36E3,1.177E3,1.325E3,1.361E3,1.022E4,4.78E2,7.71E2,1.31E2,1.071E3,7.6E2,2.55E2,4.32E2,6.09E2,7.51E2,4.76E2,7.01E2,3.01E2,1.024E3,8.1E2,5.51E2,9.986E3,2.34E2,3.01E2,1.77E2,4.06E2,3.65E2,3.7E1,9.4E1,6.63E2,4.08E2,2.68E2,4.92E2,1.38E2,1.17E2,2.74E2,1.58E2,3.54E2,2.55E2,4.09E2,3.42E2,2.06E2,2.7E2,3.88E2,3.13E2,5.6E2,4.64E2,2.16E2,5.94E2],"tree_param":{"num_deleted":"0","num_feature":"6","num_nodes":"59","size_leaf_vector":"0"}},{"base_weights":[8.169433E2,1.3885616E2,2.2856667E3,2.8450914E1,9.0730457E2,1.4943301E3,2.7230913E3,5.0574403E0,2.8752655E2,7.970814E2,1.1291049E3,1.1163464E3,1.8520803E3,1.9656986E3,2.9336594E3,1.7684191E-1,1.2015123E2,5.4837756E2,2.5106845E2,1.3263312E3,7.465872E2,6.801951E2,1.1667219E3,1.6223832E3,9.7406934E2,1.6689026E3,1.9791011E3,1.8685406E1,2.0944646E3,2.6593074E3,3.1598665E3,-3.4436537E-3,3.4445918E-1,1.0231196E0,1.8426994E0,1.9461368E0,5.528377E0,1.8843398E0,3.2094073E0,7.900587E0,1.5466572E1,7.7975583E0,2.543295E0,1.4607534E0,6.8901434E0,1.1085514E1,1.3470715E1,2.0059658E1,1.5167338E1,8.084744E0,1.2424365E1,1.6895315E1,2.792834E0,1.7517935E1,2.0756657E1,2.1020275E1,1.1340688E1,2.4531136E1,2.7714872E1,2.8630651E1,3.344894E1],"categories":[],"categories_nodes":[],"categories_segments":[],"categories_sizes":[],"default_left":[0,0,0,0,0,0,0,0,0,0,0,0,0,0,0,0,0,0,0,0,0,0,0,0,0,0,0,0,0,0,0,0,0,0,0,0,0,0,0,0,0,0,0,0,0,0,0,0,0,0,0,0,0,0,0,0,0,0,0,0,0],"id":1,"left_children":[1,3,5,7,9,11,13,15,17,19,21,23,25,27,29,31,33,35,37,39,41,43,45,47,49,51,53,-1,55,57,59,-1,-1,-1,-1,-1,-1,-1,-1,-1,-1,-1,-1,-1,-1,-1,-1,-1,-1,-1,-1,-1,-1,-1,-1,-1,-1,-1,-1,-1,-1],"loss_changes":[1.93156E10,1.1258107E9,2.1164442E9,7.032667E7,3.985408E7,2.9312614E8,6.23233E8,5.9789965E6,9.00156E6,2.886048E7,8.510976E6,7.50249E7,2.2756352E7,6.85824E6,1.8299085E8,1.8241139E5,4.76426E5,7.7012E4,3.637588E6,1.0120912E7,1.6488448E7,1.11324E5,3.825664E6,6.359296E6,3.601421E7,1.2857984E7,1.0763008E7,0E0,2.45504E5,2.5583616E7,8.295731E7,0E0,0E0,0E0,0E0,0E0,0E0,0E0,0E0,0E0,0E0,0E0,0E0,0E0,0E0,0E0,0E0,0E0,0E0,0E0,0E0,0E0,0E0,0E0,0E0,0E0,0E0,0E0,0E0,0E0,0E0],"parents":[2147483647,0,0,1,1,2,2,3,3,4,4,5,5,6,6,7,7,8,8,9,9,10,10,11,11,12,12,13,13,14,14,15,15,16,16,17,17,18,18,19,19,20,20,21,21,22,22,23,23,24,24,25,25,26,26,28,28,29,29,30,30],"right_children":[2,4,6,8,10,12,14,16,18,20,22,24,26,28,30,32,34,36,38,40,42,44,46,48,50,52,54,-1,56,58,60,-1,-1,-1,-1,-1,-1,-1,-1,-1,-1,-1,-1,-1,-1,-1,-1,-1,-1,-1,-1,-1,-1,-1,-1,-1,-1,-1,-1,-1,-1],"split_conditions":[3.2909128E-1,-2.0260572E-1,1.24088E-1,-4.204644E-1,4.1669443E-1,-3.4798336E-1,8.3679336E-1,-5.9185666E-1,-1.1711831E0,-1.2062958E0,-9.253377E-2,-1.9977303E-1,-1.6071542E-1,1.3686409E0,1.2125843E0,-7.034521E-1,2.840461E-1,-1.1568818E0,1.3579252E-1,-3.387955E-2,1.9434962E0,4.2839894E-1,2.205428E-1,-7.3812526E-1,-5.469558E-1,4.2012906E0,8.3679336E-1,1.8685406E1,2.1643674E0,4.7911707E-1,1.3075509E0,-3.4436537E-3,3.4445918E-1,1.0231196E0,1.8426994E0,1.9461368E0,5.528377E0,1.8843398E0,3.2094073E0,7.900587E0,1.5466572E1,7.7975583E0,2.543295E0,1.4607534E0,6.8901434E0,1.1085514E1,1.3470715E1,2.0059658E1,1.5167338E1,8.084744E0,1.2424365E1,1.6895315E1,2.792834E0,1.7517935E1,2.0756657E1,2.1020275E1,1.1340688E1,2.4531136E1,2.7714872E1,2.8630651E1,3.344894E1],"split_indices":[3,3,4,3,4,4,3,3,4,4,3,5,4,4,4,3,4,5,4,3,5,4,3,4,4,5,3,0,5,4,3,0,0,0,0,0,0,0,0,0,0,0,0,0,0,0,0,0,0,0,0,0,0,0,0,0,0,0,0,0,0],"split_type":[0,0,0,0,0,0,0,0,0,0,0,0,0,0,0,0,0,0,0,0,0,0,0,0,0,0,0,0,0,0,0,0,0,0,0,0,0,0,0,0,0,0,0,0,0,0,0,0,0,0,0,0,0,0,0,0,0,0,0,0,0],"sum_hessian":[1.9394E4,1.3269E4,6.125E3,1.1603E4,1.666E3,2.182E3,3.943E3,1.0643E4,9.6E2,1.116E3,5.5E2,1.063E3,1.119E3,8.6E2,3.083E3,1.0211E4,4.32E2,1.16E2,8.44E2,9.5E1,1.021E3,4.4E1,5.06E2,2.31E2,8.32E2,4.64E2,6.55E2,4.99E2,3.61E2,1.399E3,1.684E3,1.0059E4,1.52E2,3.4E2,9.2E1,2E0,1.14E2,4.47E2,3.97E2,2.9E1,6.6E1,9.56E2,6.5E1,1E0,4.3E1,3.88E2,1.18E2,4.6E1,1.85E2,5.17E2,3.15E2,4.57E2,7E0,2.01E2,4.54E2,3.57E2,4E0,5.01E2,8.98E2,6.53E2,1.031E3],"tree_param":{"num_deleted":"0","num_feature":"6","num_nodes":"61","size_leaf_vector":"0"}},{"base_weights":[8.084756E2,1.7099582E2,2.5001052E3,2.295496E1,8.4871234E2,1.9272764E3,3.0623235E3,3.4653563E0,2.4545227E2,6.771111E2,1.3418154E3,1.5836827E3,2.1776228E3,2.772739E3,3.3448892E3,-4.6364125E-2,7.5652405E1,2.0972308E2,5.0097296E2,5.245325E2,8.9189655E2,1.0996261E3,1.5410964E3,1.3337185E3,1.930313E3,1.9473961E3,2.443651E3,2.6445322E3,2.9430022E3,3.209019E1,3.5346092E1,-4.337596E-3,2.0041652E-1,5.6365144E-1,1.072499E0,1.6178589E0,2.726321E0,4.0334873E0,5.362011E0,4.1088886E0,6.802697E0,7.21826E0,9.895412E0,9.953513E0,1.3347829E1,1.3965275E1,1.7341894E1,1.2090583E1,1.5206113E1,1.8003807E1,2.1350264E1,1.7947378E1,2.1203993E1,2.307265E1,2.5704094E1,2.469256E1,2.8080236E1,2.7973185E1,3.0732477E1],"categories":[],"categories_nodes":[],"categories_segments":[],"categories_sizes":[],"default_left":[0,0,0,0,0,0,0,0,0,0,0,0,0,0,0,0,0,0,0,0,0,0,0,0,0,0,0,0,0,0,0,0,0,0,0,0,0,0,0,0,0,0,0,0,0,0,0,0,0,0,0,0,0,0,0,0,0,0,0],"id":2,"left_children":[1,3,5,7,9,11,13,15,17,19,21,23,25,27,29,31,33,35,37,39,41,43,45,47,49,51,53,55,57,-1,-1,-1,-1,-1,-1,-1,-1,-1,-1,-1,-1,-1,-1,-1,-1,-1,-1,-1,-1,-1,-1,-1,-1,-1,-1,-1,-1,-1,-1],"loss_changes":[2.081877E10,1.4069044E9,1.6958362E9,4.9910932E7,2.1181875E8,2.219182E8,2.0879565E8,2.6830555E6,8.358032E6,6.0716864E7,2.9580288E7,9.342822E7,8.790784E7,2.1074944E7,2.3303168E7,7.8560266E4,2.9318475E5,2.413672E6,1.72346E5,1.9082688E7,1.21392E7,5.929632E6,7.432256E6,1.3235328E7,8.444928E6,1.7745152E7,6.13632E6,1.4959616E7,2.010112E6,0E0,0E0,0E0,0E0,0E0,0E0,0E0,0E0,0E0,0E0,0E0,0E0,0E0,0E0,0E0,0E0,0E0,0E0,0E0,0E0,0E0,0E0,0E0,0E0,0E0,0E0,0E0,0E0,0E0,0E0],"parents":[2147483647,0,0,1,1,2,2,3,3,4,4,5,5,6,6,7,7,8,8,9,9,10,10,11,11,12,12,13,13,14,14,15,15,16,16,17,17,18,18,19,19,20,20,21,21,22,22,23,23,24,24,25,25,26,26,27,27,28,28],"right_children":[2,4,6,8,10,12,14,16,18,20,22,24,26,28,30,32,34,36,38,40,42,44,46,48,50,52,54,56,58,-1,-1,-1,-1,-1,-1,-1,-1,-1,-1,-1,-1,-1,-1,-1,-1,-1,-1,-1,-1,-1,-1,-1,-1,-1,-1,-1,-1,-1,-1],"split_conditions":[1.2669846E-1,-9.078283E-2,1.3100919E0,-4.0139905E-1,1.254044E0,5.905428E-1,2.1145828E0,-5.996522E-1,-3.1097785E-1,-2.6095772E-1,-2.2876881E-1,1.254044E0,1.3452288E0,1.254044E0,2.6474361E0,-6.5612787E-1,-4.7081706E-1,-4.8002744E-1,-2.2876881E-1,5.222135E-1,3.1748918E-1,1.9841099E0,2.010583E0,6.469306E-1,2.157655E0,9.323471E-1,9.323471E-1,1.7123373E0,1.6587971E0,3.209019E1,3.5346092E1,-4.337596E-3,2.0041652E-1,5.6365144E-1,1.072499E0,1.6178589E0,2.726321E0,4.0334873E0,5.362011E0,4.1088886E0,6.802697E0,7.21826E0,9.895412E0,9.953513E0,1.3347829E1,1.3965275E1,1.7341894E1,1.2090583E1,1.5206113E1,1.8003807E1,2.1350264E1,1.7947378E1,2.1203993E1,2.307265E1,2.5704094E1,2.469256E1,2.8080236E1,2.7973185E1,3.0732477E1],"split_indices":[0,1,0,1,1,0,0,1,0,0,0,1,1,1,0,1,1,0,0,1,1,1,1,1,1,0,0,0,0,0,0,0,0,0,0,0,0,0,0,0,0,0,0,0,0,0,0,0,0,0,0,0,0,0,0,0,0,0,0],"split_type":[0,0,0,0,0,0,0,0,0,0,0,0,0,0,0,0,0,0,0,0,0,0,0,0,0,0,0,0,0,0,0,0,0,0,0,0,0,0,0,0,0,0,0,0,0,0,0,0,0,0,0,0,0,0,0,0,0,0,0],"sum_hessian":[1.9305E4,1.4022E4,5.283E3,1.1509E4,2.513E3,2.619E3,2.664E3,1.0583E4,9.26E2,1.866E3,6.47E2,1.107E3,1.512E3,1.321E3,1.343E3,1.0093E4,4.9E2,8.14E2,1.12E2,1.093E3,7.73E2,2.95E2,3.52E2,6.46E2,4.61E2,8.15E2,6.97E2,7.63E2,5.58E2,7.93E2,5.5E2,9.903E3,1.9E2,3.06E2,1.84E2,4.64E2,3.5E2,3.3E1,7.9E1,6.34E2,4.59E2,2.85E2,4.88E2,2.08E2,8.7E1,2.06E2,1.46E2,3.92E2,2.54E2,2.88E2,1.73E2,4.39E2,3.76E2,3.45E2,3.52E2,3.76E2,3.87E2,2.74E2,2.84E2],"tree_param":{"num_deleted":"0","num_feature":"6","num_nodes":"59","size_leaf_vector":"0"}},{"base_weights":[8.04671E2,1.722845E2,2.4866147E3,3.5272606E1,9.1559564E2,1.9119202E3,3.0388455E3,5.8501472E0,3.2365594E2,7.244353E2,1.327513E3,1.6288381E3,2.248487E3,2.743476E3,3.3194272E3,4.0634063E-1,1.05491745E2,2.420721E2,5.7768854E2,5.331182E2,9.072135E2,1.0624324E3,1.4959642E3,1.356073E3,1.8954238E3,2.0171506E3,2.4446194E3,2.415778E1,2.826945E3,3.1815939E1,3.5122253E1,-3.3496688E-3,3.3469498E-1,8.2343906E-1,1.5715806E0,1.8442225E0,2.844947E0,5.0329633E0,6.726435E0,4.308634E0,6.716074E0,7.9968767E0,1.0079495E1,9.643801E0,1.2872882E1,1.3618928E1,1.692474E1,1.2086624E1,1.5472632E1,1.7615124E1,2.0537712E1,1.8607622E1,2.1491585E1,2.3114183E1,2.5794184E1,2.720475E1,2.9636332E1],"categories":[],"categories_nodes":[],"categories_segments":[],"categories_sizes":[],"default_left":[0,0,0,0,0,0,0,0,0,0,0,0,0,0,0,0,0,0,0,0,0,0,0,0,0,0,0,0,0,0,0,0,0,0,0,0,0,0,0,0,0,0,0,0,0,0,0,0,0,0,0,0,0,0,0,0,0],"id":3,"left_children":[1,3,5,7,9,11,13,15,17,19,21,23,25,27,29,31,33,35,37,39,41,43,45,47,49,51,53,-1,55,-1,-1,-1,-1,-1,-1,-1,-1,-1,-1,-1,-1,-1,-1,-1,-1,-1,-1,-1,-1,-1,-1,-1,-1,-1,-1,-1,-1],"loss_changes":[2.038527E10,1.4186332E9,1.6562237E9,9.980653E7,1.6975168E8,2.4110182E8,2.1208883E8,5.7903925E6,2.242964E7,5.1374784E7,2.9042688E7,9.915853E7,4.820019E7,2.8893184E7,2.507264E7,2.481256E5,6.484265E5,1.967648E6,1.526328E6,1.0005824E7,7.3936E6,4.711424E6,8.681472E6,1.7717376E7,1.1331584E7,7.211008E6,5.331968E6,0E0,7.000064E6,0E0,0E0,0E0,0E0,0E0,0E0,0E0,0E0,0E0,0E0,0E0,0E0,0E0,0E0,0E0,0E0,0E0,0E0,0E0,0E0,0E0,0E0,0E0,0E0,0E0,0E0,0E0,0E0],"parents":[2147483647,0,0,1,1,2,2,3,3,4,4,5,5,6,6,7,7,8,8,9,9,10,10,11,11,12,12,13,13,14,14,15,15,16,16,17,17,18,18,19,19,20,20,21,21,22,22,23,23,24,24,25,25,26,26,28,28],"right_children":[2,4,6,8,10,12,14,16,18,20,22,24,26,28,30,32,34,36,38,40,42,44,46,48,50,52,54,-1,56,-1,-1,-1,-1,-1,-1,-1,-1,-1,-1,-1,-1,-1,-1,-1,-1,-1,-1,-1,-1,-1,-1,-1,-1,-1,-1,-1,-1],"split_conditions":[1.4036135E-1,8.688021E-2,1.3100919E0,-3.372756E-1,1.2411019E0,8.3679336E-1,2.1145828E0,-5.612958E-1,-3.1097785E-1,-3.4247205E-1,-2.7161014E-1,6.044373E-1,7.406032E-1,7.796626E-1,2.6474361E0,-6.331846E-1,-5.2379507E-1,-5.1568997E-1,-1.162235E-1,6.075153E-1,-1.162235E-1,1.9841099E0,2.0358791E0,6.469306E-1,9.323471E-1,2.010583E0,1.8740999E0,2.415778E1,1.3882957E0,3.1815939E1,3.5122253E1,-3.3496688E-3,3.3469498E-1,8.2343906E-1,1.5715806E0,1.8442225E0,2.844947E0,5.0329633E0,6.726435E0,4.308634E0,6.716074E0,7.9968767E0,1.0079495E1,9.643801E0,1.2872882E1,1.3618928E1,1.692474E1,1.2086624E1,1.5472632E1,1.7615124E1,2.0537712E1,1.8607622E1,2.1491585E1,2.3114183E1,2.5794184E1,2.720475E1,2.9636332E1],"split_indices":[0,1,0,1,1,3,0,1,0,0,0,0,0,3,0,1,0,0,0,1,0,1,1,1,0,1,1,0,3,0,0,0,0,0,0,0,0,0,0,0,0,0,0,0,0,0,0,0,0,0,0,0,0,0,0,0,0],"split_type":[0,0,0,0,0,0,0,0,0,0,0,0,0,0,0,0,0,0,0,0,0,0,0,0,0,0,0,0,0,0,0,0,0,0,0,0,0,0,0,0,0,0,0,0,0,0,0,0,0,0,0,0,0,0,0,0,0],"sum_hessian":[1.9165E4,1.3929E4,5.236E3,1.1762E4,2.167E3,2.568E3,2.668E3,1.0674E4,1.088E3,1.482E3,6.85E2,1.398E3,1.17E3,1.305E3,1.363E3,1.0122E4,5.52E2,8.25E2,2.63E2,7.26E2,7.56E2,2.69E2,4.16E2,6.94E2,7.04E2,5.42E2,6.28E2,2.71E2,1.034E3,8.05E2,5.58E2,9.901E3,2.21E2,3.83E2,1.69E2,3.52E2,4.73E2,1.51E2,1.12E2,4.2E2,3.06E2,3.7E2,3.86E2,1.91E2,7.8E1,2.52E2,1.64E2,3.96E2,2.98E2,3.88E2,3.16E2,2.55E2,2.87E2,3.25E2,3.03E2,5.93E2,4.41E2],"tree_param":{"num_deleted":"0","num_feature":"6","num_nodes":"57","size_leaf_vector":"0"}},{"base_weights":[7.9448254E2,1.6611443E2,2.458016E3,2.298679E1,8.3575665E2,1.9246426E3,3.036288E3,3.3545623E0,2.4271478E2,6.644551E2,1.301304E3,1.5658782E3,2.1631602E3,2.7881953E3,3.3293594E3,8.700226E-2,7.714737E1,2.070487E2,4.9365598E2,4.7992877E2,8.408468E2,1.026075E3,1.4647566E3,1.316603E3,1.9166774E3,1.9301024E3,2.4045115E3,2.6133372E3,2.9235012E3,3.1947882E1,3.4803764E1,-3.8330876E-3,2.5399432E-1,5.6775415E-1,1.059118E0,1.572731E0,2.679088E0,4.039302E0,5.285473E0,3.6483715E0,6.26791E0,6.691623E0,9.342334E0,9.378971E0,1.2676869E1,1.3397427E1,1.6842014E1,1.1830795E1,1.5039071E1,1.7823223E1,2.0873661E1,1.75501E1,2.1133387E1,2.257292E1,2.5302402E1,2.4480175E1,2.7855595E1,2.8217634E1,3.0706566E1],"categories":[],"categories_nodes":[],"categories_segments":[],"categories_sizes":[],"default_left":[0,0,0,0,0,0,0,0,0,0,0,0,0,0,0,0,0,0,0,0,0,0,0,0,0,0,0,0,0,0,0,0,0,0,0,0,0,0,0,0,0,0,0,0,0,0,0,0,0,0,0,0,0,0,0,0,0,0,0],"id":4,"left_children":[1,3,5,7,9,11,13,15,17,19,21,23,25,27,29,31,33,35,37,39,41,43,45,47,49,51,53,55,57,-1,-1,-1,-1,-1,-1,-1,-1,-1,-1,-1,-1,-1,-1,-1,-1,-1,-1,-1,-1,-1,-1,-1,-1,-1,-1,-1,-1,-1,-1],"loss_changes":[2.0157379E10,1.3416093E9,1.6248545E9,4.975398E7,1.957166E8,2.3219098E8,1.7503437E8,2.5532385E6,8.364572E6,5.831475E7,2.8278528E7,9.392896E7,8.82263E7,2.4986624E7,1.2393472E7,1.2073546E5,2.570955E5,2.47222E6,1.5279E5,1.4713232E7,1.4141248E7,4.137248E6,9.073664E6,1.442688E7,6.737024E6,2.3401472E7,9.225728E6,1.0577152E7,2.848256E6,0E0,0E0,0E0,0E0,0E0,0E0,0E0,0E0,0E0,0E0,0E0,0E0,0E0,0E0,0E0,0E0,0E0,0E0,0E0,0E0,0E0,0E0,0E0,0E0,0E0,0E0,0E0,0E0,0E0,0E0],"parents":[2147483647,0,0,1,1,2,2,3,3,4,4,5,5,6,6,7,7,8,8,9,9,10,10,11,11,12,12,13,13,14,14,15,15,16,16,17,17,18,18,19,19,20,20,21,21,22,22,23,23,24,24,25,25,26,26,27,27,28,28],"right_children":[2,4,6,8,10,12,14,16,18,20,22,24,26,28,30,32,34,36,38,40,42,44,46,48,50,52,54,56,58,-1,-1,-1,-1,-1,-1,-1,-1,-1,-1,-1,-1,-1,-1,-1,-1,-1,-1,-1,-1,-1,-1,-1,-1,-1,-1,-1,-1,-1,-1],"split_conditions":[1.2669846E-1,-9.078283E-2,1.4008229E0,-4.0139905E-1,1.2411019E0,5.905428E-1,2.2576497E0,-5.8729815E-1,-3.1097785E-1,-3.4247205E-1,-3.1097785E-1,1.2875766E0,1.2875766E0,1.7556418E0,2.6685095E0,-6.449504E-1,-4.7081706E-1,-4.8002744E-1,-2.1857953E-1,4.9868196E-1,2.9631087E-1,1.9841099E0,2.1123567E0,6.469306E-1,2.157655E0,9.469363E-1,9.469363E-1,1.1875676E0,1.1975684E0,3.1947882E1,3.4803764E1,-3.8330876E-3,2.5399432E-1,5.6775415E-1,1.059118E0,1.572731E0,2.679088E0,4.039302E0,5.285473E0,3.6483715E0,6.26791E0,6.691623E0,9.342334E0,9.378971E0,1.2676869E1,1.3397427E1,1.6842014E1,1.1830795E1,1.5039071E1,1.7823223E1,2.0873661E1,1.75501E1,2.1133387E1,2.257292E1,2.5302402E1,2.4480175E1,2.7855595E1,2.8217634E1,3.0706566E1],"split_indices":[0,1,0,1,1,0,0,1,0,0,0,1,1,0,0,1,1,0,0,1,1,1,1,1,1,0,0,1,1,0,0,0,0,0,0,0,0,0,0,0,0,0,0,0,0,0,0,0,0,0,0,0,0,0,0,0,0,0,0],"split_type":[0,0,0,0,0,0,0,0,0,0,0,0,0,0,0,0,0,0,0,0,0,0,0,0,0,0,0,0,0,0,0,0,0,0,0,0,0,0,0,0,0,0,0,0,0,0,0,0,0,0,0,0,0,0,0,0,0,0,0],"sum_hessian":[1.9283E4,1.3997E4,5.286E3,1.1533E4,2.464E3,2.752E3,2.534E3,1.0588E4,9.45E2,1.803E3,6.61E2,1.102E3,1.65E3,1.378E3,1.156E3,1.014E4,4.48E2,8.29E2,1.16E2,8.83E2,9.2E2,2.49E2,4.12E2,6.47E2,4.55E2,8.44E2,8.06E2,6.1E2,7.68E2,6.23E2,5.33E2,9.956E3,1.84E2,2.64E2,1.84E2,4.58E2,3.71E2,3.6E1,8E1,4.97E2,3.86E2,3.27E2,5.93E2,1.86E2,6.3E1,2.67E2,1.45E2,3.82E2,2.65E2,2.61E2,1.94E2,4.37E2,4.07E2,3.8E2,4.26E2,3.19E2,2.91E2,4.66E2,3.02E2],"tree_param":{"num_deleted":"0","num_feature":"6","num_nodes":"59","size_leaf_vector":"0"}},{"base_weights":[7.8563873E2,1.677667E2,2.4424182E3,2.4302954E1,8.4027216E2,1.876567E3,2.9783438E3,4.252137E0,2.5491519E2,6.569037E2,1.2846844E3,1.6048472E3,2.211949E3,2.6844016E3,3.2474832E3,2.1542162E-1,8.7171555E1,2.1409567E2,4.948837E2,5.0102164E2,8.780678E2,1.0861353E3,1.519269E3,1.3234968E3,1.8514674E3,1.9921617E3,2.404376E3,2.3709204E1,2.7668367E3,3.0905312E1,3.4105343E1,-3.8159653E-3,2.7215946E-1,6.5736747E-1,1.2564863E0,1.6289365E0,2.7144997E0,3.9847043E0,5.331038E0,3.886584E0,6.3047276E0,7.119379E0,9.633062E0,9.739536E0,1.3341668E1,1.3646037E1,1.6915281E1,1.1729052E1,1.5090276E1,1.7256578E1,2.016433E1,1.876675E1,2.1734982E1,2.2844378E1,2.5467537E1,2.6651506E1,2.8978285E1],"categories":[],"categories_nodes":[],"categories_segments":[],"categories_sizes":[],"default_left":[0,0,0,0,0,0,0,0,0,0,0,0,0,0,0,0,0,0,0,0,0,0,0,0,0,0,0,0,0,0,0,0,0,0,0,0,0,0,0,0,0,0,0,0,0,0,0,0,0,0,0,0,0,0,0,0,0],"id":5,"left_children":[1,3,5,7,9,11,13,15,17,19,21,23,25,27,29,31,33,35,37,39,41,43,45,47,49,51,53,-1,55,-1,-1,-1,-1,-1,-1,-1,-1,-1,-1,-1,-1,-1,-1,-1,-1,-1,-1,-1,-1,-1,-1,-1,-1,-1,-1,-1,-1],"loss_changes":[1.9758617E10,1.3564906E9,1.5843717E9,5.3586028E7,2.0060237E8,2.2910464E8,2.0417126E8,3.5691228E6,8.974384E6,5.996115E7,3.193152E7,9.566208E7,4.3424256E7,2.6826752E7,2.528768E7,1.6393266E5,3.9999125E5,2.287488E6,2.81354E5,1.4736864E7,9.552384E6,9.663456E6,6.430464E6,1.6781696E7,1.2106752E7,7.187712E6,4.479232E6,0E0,5.822976E6,0E0,0E0,0E0,0E0,0E0,0E0,0E0,0E0,0E0,0E0,0E0,0E0,0E0,0E0,0E0,0E0,0E0,0E0,0E0,0E0,0E0,0E0,0E0,0E0,0E0,0E0,0E0,0E0],"parents":[2147483647,0,0,1,1,2,2,3,3,4,4,5,5,6,6,7,7,8,8,9,9,10,10,11,11,12,12,13,13,14,14,15,15,16,16,17,17,18,18,19,19,20,20,21,21,22,22,23,23,24,24,25,25,26,26,28,28],"right_children":[2,4,6,8,10,12,14,16,18,20,22,24,26,28,30,32,34,36,38,40,42,44,46,48,50,52,54,-1,56,-1,-1,-1,-1,-1,-1,-1,-1,-1,-1,-1,-1,-1,-1,-1,-1,-1,-1,-1,-1,-1,-1,-1,-1,-1,-1,-1,-1],"split_conditions":[1.4036135E-1,-7.78405E-2,1.3100919E0,-3.8080898E-1,1.1875676E0,9.6438533E-1,2.0911937E0,-5.749441E-1,-3.1097785E-1,-2.6095772E-1,-1.5860169E-1,5.7850087E-1,7.5125563E-1,7.796626E-1,2.5862541E0,-6.449504E-1,-5.4903674E-1,-4.8002744E-1,-2.1857953E-1,4.657378E-1,2.9631087E-1,1.9576368E0,1.9576368E0,6.469306E-1,9.323471E-1,2.235897E0,2.010583E0,2.3709204E1,1.4899886E0,3.0905312E1,3.4105343E1,-3.8159653E-3,2.7215946E-1,6.5736747E-1,1.2564863E0,1.6289365E0,2.7144997E0,3.9847043E0,5.331038E0,3.886584E0,6.3047276E0,7.119379E0,9.633062E0,9.739536E0,1.3341668E1,1.3646037E1,1.6915281E1,1.1729052E1,1.5090276E1,1.7256578E1,2.016433E1,1.876675E1,2.1734982E1,2.2844378E1,2.5467537E1,2.6651506E1,2.8978285E1],"split_indices":[0,1,0,1,1,3,0,1,0,0,0,0,0,3,0,1,0,0,0,1,1,1,1,1,0,1,1,0,3,0,0,0,0,0,0,0,0,0,0,0,0,0,0,0,0,0,0,0,0,0,0,0,0,0,0,0,0],"split_type":[0,0,0,0,0,0,0,0,0,0,0,0,0,0,0,0,0,0,0,0,0,0,0,0,0,0,0,0,0,0,0,0,0,0,0,0,0,0,0,0,0,0,0,0,0,0,0,0,0,0,0,0,0,0,0,0,0],"sum_hessian":[1.9301E4,1.4059E4,5.242E3,1.1588E4,2.471E3,2.552E3,2.69E3,1.0662E4,9.26E2,1.751E3,7.2E2,1.413E3,1.139E3,1.291E3,1.399E3,1.0168E4,4.94E2,7.93E2,1.33E2,1.029E3,7.22E2,3.93E2,3.27E2,6.63E2,7.5E2,5.37E2,6.02E2,2.75E2,1.016E3,7.23E2,6.76E2,9.949E3,2.19E2,3.19E2,1.75E2,4.21E2,3.72E2,4.1E1,9.2E1,5.53E2,4.76E2,2.48E2,4.74E2,2.74E2,1.19E2,1.77E2,1.5E2,3.7E2,2.93E2,4.32E2,3.18E2,3.35E2,2.02E2,3.36E2,2.66E2,5.84E2,4.32E2],"tree_param":{"num_deleted":"0","num_feature":"6","num_nodes":"57","size_leaf_vector":"0"}},{"base_weights":[7.7918866E2,1.6255374E2,2.4106323E3,2.821376E1,7.9563245E2,1.8888517E3,2.9743318E3,5.871077E0,3.1227426E2,5.045116E2,1.057273E3,1.2965839E3,2.0418798E3,2.7517097E3,3.289495E3,6.502543E-1,1.1081039E2,2.3749902E2,5.24248E2,3.505832E2,6.8022925E2,8.0228705E2,1.3005944E3,1.1253585E3,1.5008687E3,1.809411E3,2.2342158E3,2.4061388E1,2.8271636E3,3.1995945E1,3.488535E1,-3.2604986E-3,3.6876726E-1,8.601713E-1,1.5150905E0,1.4078401E0,2.7450042E0,4.64274E0,5.976428E0,2.2494256E0,4.475812E0,5.3197217E0,8.702067E0,6.875729E0,9.003731E0,1.1217689E1,1.4210617E1,9.627853E0,1.1725443E1,1.3648949E1,1.5939662E1,1.5766937E1,1.9691458E1,1.9811958E1,2.3996574E1,2.6873299E1,2.9176027E1],"categories":[],"categories_nodes":[],"categories_segments":[],"categories_sizes":[],"default_left":[0,0,0,0,0,0,0,0,0,0,0,0,0,0,0,0,0,0,0,0,0,0,0,0,0,0,0,0,0,0,0,0,0,0,0,0,0,0,0,0,0,0,0,0,0,0,0,0,0,0,0,0,0,0,0,0,0],"id":6,"left_children":[1,3,5,7,9,11,13,15,17,19,21,23,25,27,29,31,33,35,37,39,41,43,45,47,49,51,53,-1,55,-1,-1,-1,-1,-1,-1,-1,-1,-1,-1,-1,-1,-1,-1,-1,-1,-1,-1,-1,-1,-1,-1,-1,-1,-1,-1,-1,-1],"loss_changes":[1.9423556E10,1.1917522E9,1.5520788E9,7.337207E7,1.8630925E8,2.4686797E8,1.6944333E8,5.8725415E6,1.3237376E7,3.1218272E7,7.905485E7,1.8178816E7,9.369907E7,3.2231424E7,7.590912E6,3.6119062E5,4.995665E5,2.197972E6,6.8652E5,7.479568E6,1.4802784E7,6.50336E6,1.2602496E7,1.27216E6,1.065088E6,3.3882624E7,4.514304E7,0E0,7.625728E6,0E0,0E0,0E0,0E0,0E0,0E0,0E0,0E0,0E0,0E0,0E0,0E0,0E0,0E0,0E0,0E0,0E0,0E0,0E0,0E0,0E0,0E0,0E0,0E0,0E0,0E0,0E0,0E0],"parents":[2147483647,0,0,1,1,2,2,3,3,4,4,5,5,6,6,7,7,8,8,9,9,10,10,11,11,12,12,13,13,14,14,15,15,16,16,17,17,18,18,19,19,20,20,21,21,22,22,23,23,24,24,25,25,26,26,28,28],"right_children":[2,4,6,8,10,12,14,16,18,20,22,24,26,28,30,32,34,36,38,40,42,44,46,48,50,52,54,-1,56,-1,-1,-1,-1,-1,-1,-1,-1,-1,-1,-1,-1,-1,-1,-1,-1,-1,-1,-1,-1,-1,-1,-1,-1,-1,-1,-1,-1],"split_conditions":[1.2669846E-1,-2.0260572E-1,1.4008229E0,-5.1568997E-1,-3.6331376E-1,3.2909128E-1,2.318137E0,-6.0507786E-1,-3.1097785E-1,-5.4486835E-1,4.5706415E-1,4.659555E-1,7.5125563E-1,8.3679336E-1,2.8430705E0,-7.034521E-1,-3.7933025E-1,-4.391271E-1,-1.335916E-1,6.9206214E-1,7.552868E-1,-1.335916E-1,-1.5860169E-1,1.6395515E-2,6.759938E-1,1.0405596E0,8.3679336E-1,2.4061388E1,1.8204364E0,3.1995945E1,3.488535E1,-3.2604986E-3,3.6876726E-1,8.601713E-1,1.5150905E0,1.4078401E0,2.7450042E0,4.64274E0,5.976428E0,2.2494256E0,4.475812E0,5.3197217E0,8.702067E0,6.875729E0,9.003731E0,1.1217689E1,1.4210617E1,9.627853E0,1.1725443E1,1.3648949E1,1.5939662E1,1.5766937E1,1.9691458E1,1.9811958E1,2.3996574E1,2.6873299E1,2.9176027E1],"split_indices":[0,3,0,0,0,3,0,0,0,0,3,0,0,3,0,3,3,3,0,3,3,0,0,3,0,3,3,0,0,0,0,0,0,0,0,0,0,0,0,0,0,0,0,0,0,0,0,0,0,0,0,0,0,0,0,0,0],"split_type":[0,0,0,0,0,0,0,0,0,0,0,0,0,0,0,0,0,0,0,0,0,0,0,0,0,0,0,0,0,0,0,0,0,0,0,0,0,0,0,0,0,0,0,0,0,0,0,0,0,0,0,0,0,0,0,0,0],"sum_hessian":[1.9307E4,1.4012E4,5.295E3,1.156E4,2.452E3,2.752E3,2.543E3,1.0718E4,8.42E2,1.162E3,1.29E3,5.67E2,2.185E3,1.496E3,1.047E3,1.0211E4,5.07E2,6.24E2,2.18E2,6.21E2,5.41E2,6.32E2,6.58E2,3.12E2,2.55E2,9.94E2,1.191E3,2.74E2,1.222E3,7.33E2,3.14E2,9.944E3,2.67E2,3.17E2,1.9E2,1.74E2,4.5E2,1.24E2,9.4E1,2.72E2,3.49E2,3.06E2,2.35E2,2.95E2,3.37E2,2.69E2,3.89E2,7.5E1,2.37E2,1.1E2,1.45E2,4.09E2,5.85E2,4.76E2,7.15E2,4.92E2,7.3E2],"tree_param":{"num_deleted":"0","num_feature":"6","num_nodes":"57","size_leaf_vector":"0"}},{"base_weights":[7.663241E2,1.6132912E2,2.3839824E3,2.144274E1,8.122502E2,1.8400902E3,2.9153237E3,3.279324E0,2.3345827E2,6.365117E2,1.2640641E3,1.5648601E3,2.1522546E3,2.6354946E3,3.1845027E3,6.736998E-2,7.473291E1,2.0003966E2,4.7341425E2,4.5197775E2,8.0293524E2,1.00174646E3,1.4279703E3,1.2894723E3,1.8116582E3,1.9072275E3,2.3198884E3,2.321436E1,2.7225098E3,3.0516594E1,3.3683914E1,-4.161278E-3,2.1432967E-1,5.4568535E-1,1.0248978E0,1.4956689E0,2.570949E0,3.8946974E0,5.1177616E0,3.5088954E0,5.9766355E0,6.427969E0,8.886356E0,8.63127E0,1.17953005E1,1.2574973E1,1.584855E1,1.1332643E1,1.4595714E1,1.6955679E1,1.9825375E1,1.7801588E1,2.0621416E1,2.1877588E1,2.4423779E1,2.6145676E1,2.845225E1],"categories":[],"categories_nodes":[],"categories_segments":[],"categories_sizes":[],"default_left":[0,0,0,0,0,0,0,0,0,0,0,0,0,0,0,0,0,0,0,0,0,0,0,0,0,0,0,0,0,0,0,0,0,0,0,0,0,0,0,0,0,0,0,0,0,0,0,0,0,0,0,0,0,0,0,0,0],"id":7,"left_children":[1,3,5,7,9,11,13,15,17,19,21,23,25,27,29,31,33,35,37,39,41,43,45,47,49,51,53,-1,55,-1,-1,-1,-1,-1,-1,-1,-1,-1,-1,-1,-1,-1,-1,-1,-1,-1,-1,-1,-1,-1,-1,-1,-1,-1,-1,-1,-1],"loss_changes":[1.8919367E10,1.2812174E9,1.5153132E9,4.4604516E7,1.968247E8,2.2027366E8,1.9196723E8,2.44882E6,7.234664E6,5.473229E7,2.8494464E7,9.193139E7,4.556339E7,2.9479936E7,2.2723584E7,1.0550112E5,2.5130975E5,2.276854E6,1.5813E5,1.2352512E7,1.2356736E7,5.660512E6,9.400256E6,1.5856256E7,1.1099904E7,6.17152E6,6.277376E6,0E0,6.071808E6,0E0,0E0,0E0,0E0,0E0,0E0,0E0,0E0,0E0,0E0,0E0,0E0,0E0,0E0,0E0,0E0,0E0,0E0,0E0,0E0,0E0,0E0,0E0,0E0,0E0,0E0,0E0,0E0],"parents":[2147483647,0,0,1,1,2,2,3,3,4,4,5,5,6,6,7,7,8,8,9,9,10,10,11,11,12,12,13,13,14,14,15,15,16,16,17,17,18,18,19,19,20,20,21,21,22,22,23,23,24,24,25,25,26,26,28,28],"right_children":[2,4,6,8,10,12,14,16,18,20,22,24,26,28,30,32,34,36,38,40,42,44,46,48,50,52,54,-1,56,-1,-1,-1,-1,-1,-1,-1,-1,-1,-1,-1,-1,-1,-1,-1,-1,-1,-1,-1,-1,-1,-1,-1,-1,-1,-1,-1,-1],"split_conditions":[1.2669846E-1,-9.078283E-2,1.3100919E0,-4.0139905E-1,1.1875676E0,8.3679336E-1,2.1145828E0,-5.8729815E-1,-3.1097785E-1,-3.5682967E-1,-2.841152E-1,5.7850087E-1,6.5955204E-1,7.796626E-1,2.6474361E0,-6.5612787E-1,-4.7081706E-1,-4.8905888E-1,-2.1857953E-1,4.9868196E-1,2.9631087E-1,1.7652665E0,1.817036E0,5.8986664E-1,9.469363E-1,2.157655E0,1.8740999E0,2.321436E1,1.3882957E0,3.0516594E1,3.3683914E1,-4.161278E-3,2.1432967E-1,5.4568535E-1,1.0248978E0,1.4956689E0,2.570949E0,3.8946974E0,5.1177616E0,3.5088954E0,5.9766355E0,6.427969E0,8.886356E0,8.63127E0,1.17953005E1,1.2574973E1,1.584855E1,1.1332643E1,1.4595714E1,1.6955679E1,1.9825375E1,1.7801588E1,2.0621416E1,2.1877588E1,2.4423779E1,2.6145676E1,2.845225E1],"split_indices":[0,1,0,1,1,3,0,1,0,0,0,0,0,3,0,1,1,0,0,1,1,1,1,1,0,1,1,0,3,0,0,0,0,0,0,0,0,0,0,0,0,0,0,0,0,0,0,0,0,0,0,0,0,0,0,0,0],"split_type":[0,0,0,0,0,0,0,0,0,0,0,0,0,0,0,0,0,0,0,0,0,0,0,0,0,0,0,0,0,0,0,0,0,0,0,0,0,0,0,0,0,0,0,0,0,0,0,0,0,0,0,0,0,0,0,0,0],"sum_hessian":[1.9331E4,1.407E4,5.261E3,1.1582E4,2.488E3,2.602E3,2.659E3,1.0669E4,9.13E2,1.793E3,6.95E2,1.386E3,1.216E3,1.309E3,1.35E3,1.0211E4,4.58E2,8.03E2,1.1E2,8.52E2,9.41E2,2.7E2,4.25E2,6.58E2,7.28E2,4.99E2,7.17E2,2.9E2,1.019E3,7.94E2,5.56E2,9.986E3,2.25E2,2.67E2,1.91E2,4.28E2,3.75E2,3.8E1,7.2E1,5.05E2,3.47E2,3.31E2,6.1E2,1.55E2,1.15E2,2.08E2,2.17E2,3.47E2,3.11E2,4.4E2,2.88E2,2.81E2,2.18E2,3.54E2,3.63E2,5.54E2,4.65E2],"tree_param":{"num_deleted":"0","num_feature":"6","num_nodes":"57","size_leaf_vector":"0"}},{"base_weights":[7.6739E2,1.6494601E2,2.368495E3,2.208573E1,8.1213E2,1.8212983E3,2.8846863E3,3.232435E0,2.340207E2,6.3805646E2,1.2486035E3,1.5492313E3,2.1414893E3,2.6097688E3,3.154054E3,1.02966055E-1,7.377477E1,1.9961708E2,4.7314005E2,4.594735E2,8.091763E2,9.928751E2,1.4158118E3,1.2696924E3,1.7818558E3,1.8862605E3,2.304911E3,2.2964235E1,2.694102E3,3.0275303E1,3.3353443E1,-4.1220826E-3,2.1680659E-1,5.7431763E-1,1.0883527E0,1.5228912E0,2.5878122E0,3.7972581E0,5.0098715E0,3.5342467E0,5.9902134E0,6.72398E0,9.120429E0,8.616945E0,1.1668045E1,1.283451E1,1.6250896E1,1.1313307E1,1.4527122E1,1.53082905E1,1.860782E1,1.7592037E1,2.0518606E1,2.1901623E1,2.4467363E1,2.6001024E1,2.8365612E1],"categories":[],"categories_nodes":[],"categories_segments":[],"categories_sizes":[],"default_left":[0,0,0,0,0,0,0,0,0,0,0,0,0,0,0,0,0,0,0,0,0,0,0,0,0,0,0,0,0,0,0,0,0,0,0,0,0,0,0,0,0,0,0,0,0,0,0,0,0,0,0,0,0,0,0,0,0],"id":8,"left_children":[1,3,5,7,9,11,13,15,17,19,21,23,25,27,29,31,33,35,37,39,41,43,45,47,49,51,53,-1,55,-1,-1,-1,-1,-1,-1,-1,-1,-1,-1,-1,-1,-1,-1,-1,-1,-1,-1,-1,-1,-1,-1,-1,-1,-1,-1,-1,-1],"loss_changes":[1.8564809E10,1.2930842E9,1.4810399E9,4.5781664E7,1.9135309E8,2.1943142E8,1.921577E8,2.3230502E6,7.605632E6,5.494016E7,2.9381376E7,8.786611E7,4.453683E7,2.9355008E7,2.1142528E7,1.12027625E5,2.49878E5,2.256688E6,1.14116E5,1.2929696E7,1.2373312E7,5.5656E6,9.908416E6,1.438592E7,1.2090112E7,6.132224E6,6.195968E6,0E0,6.738432E6,0E0,0E0,0E0,0E0,0E0,0E0,0E0,0E0,0E0,0E0,0E0,0E0,0E0,0E0,0E0,0E0,0E0,0E0,0E0,0E0,0E0,0E0,0E0,0E0,0E0,0E0,0E0,0E0],"parents":[2147483647,0,0,1,1,2,2,3,3,4,4,5,5,6,6,7,7,8,8,9,9,10,10,11,11,12,12,13,13,14,14,15,15,16,16,17,17,18,18,19,19,20,20,21,21,22,22,23,23,24,24,25,25,26,26,28,28],"right_children":[2,4,6,8,10,12,14,16,18,20,22,24,26,28,30,32,34,36,38,40,42,44,46,48,50,52,54,-1,56,-1,-1,-1,-1,-1,-1,-1,-1,-1,-1,-1,-1,-1,-1,-1,-1,-1,-1,-1,-1,-1,-1,-1,-1,-1,-1,-1,-1],"split_conditions":[1.4036135E-1,-9.078283E-2,1.3100919E0,-4.0139905E-1,1.1875676E0,8.3679336E-1,2.1145828E0,-5.8729815E-1,-3.1097785E-1,-3.339038E-1,-2.841152E-1,5.618274E-1,6.5955204E-1,7.796626E-1,2.6474361E0,-6.5612787E-1,-5.4486835E-1,-4.8002744E-1,-2.2876881E-1,4.9868196E-1,3.674937E-1,1.7446765E0,2.0582342E0,6.469306E-1,3.2909128E-1,2.157655E0,2.010583E0,2.2964235E1,1.5916812E0,3.0275303E1,3.3353443E1,-4.1220826E-3,2.1680659E-1,5.7431763E-1,1.0883527E0,1.5228912E0,2.5878122E0,3.7972581E0,5.0098715E0,3.5342467E0,5.9902134E0,6.72398E0,9.120429E0,8.616945E0,1.1668045E1,1.283451E1,1.6250896E1,1.1313307E1,1.4527122E1,1.53082905E1,1.860782E1,1.7592037E1,2.0518606E1,2.1901623E1,2.4467363E1,2.6001024E1,2.8365612E1],"split_indices":[0,1,0,1,1,3,0,1,0,0,0,0,0,3,0,1,0,0,0,1,1,1,1,1,3,1,1,0,3,0,0,0,0,0,0,0,0,0,0,0,0,0,0,0,0,0,0,0,0,0,0,0,0,0,0,0,0],"split_type":[0,0,0,0,0,0,0,0,0,0,0,0,0,0,0,0,0,0,0,0,0,0,0,0,0,0,0,0,0,0,0,0,0,0,0,0,0,0,0,0,0,0,0,0,0,0,0,0,0,0,0,0,0,0,0,0,0],"sum_hessian":[1.9246E4,1.3985E4,5.261E3,1.1457E4,2.528E3,2.556E3,2.705E3,1.0522E4,9.35E2,1.809E3,7.19E2,1.385E3,1.171E3,1.344E3,1.361E3,1.0076E4,4.46E2,8.19E2,1.16E2,8.87E2,9.22E2,2.87E2,4.32E2,6.32E2,7.53E2,4.62E2,7.09E2,2.91E2,1.053E3,8.12E2,5.49E2,9.842E3,2.34E2,3.06E2,1.4E2,4.57E2,3.62E2,3E1,8.6E1,5.06E2,3.81E2,3.99E2,5.23E2,1.67E2,1.2E2,2.69E2,1.63E2,3.64E2,2.68E2,1.85E2,5.68E2,2.68E2,1.94E2,4.01E2,3.08E2,6.46E2,4.07E2],"tree_param":{"num_deleted":"0","num_feature":"6","num_nodes":"57","size_leaf_vector":"0"}},{"base_weights":[7.6146497E2,1.5905577E2,2.3366628E3,2.4519428E1,8.126368E2,1.7981332E3,2.8547178E3,4.0323052E0,2.5869766E2,6.364356E2,1.230026E3,1.5551849E3,2.1009512E3,2.596007E3,3.1336736E3,2.1539181E-1,8.4147606E1,2.0921407E2,4.9583914E2,4.89966E2,8.4888184E2,9.195384E2,1.3517853E3,1.2472915E3,1.8057853E3,1.8551252E3,2.297556E3,2.4569753E3,2.7537876E3,3.0165781E1,3.3255836E1,-3.186334E-3,2.839044E-1,6.4131844E-1,1.2040961E0,1.5757885E0,2.5912564E0,3.9466565E0,5.3694577E0,3.8693936E0,6.1904063E0,7.3404365E0,9.434788E0,8.059666E0,1.0759122E1,1.2372484E1,1.5866551E1,1.122634E1,1.4309443E1,1.659608E1,1.9707357E1,1.7288885E1,2.0192354E1,2.1557304E1,2.3986162E1,2.321705E1,2.6405474E1,2.6604788E1,2.9135382E1],"categories":[],"categories_nodes":[],"categories_segments":[],"categories_sizes":[],"default_left":[0,0,0,0,0,0,0,0,0,0,0,0,0,0,0,0,0,0,0,0,0,0,0,0,0,0,0,0,0,0,0,0,0,0,0,0,0,0,0,0,0,0,0,0,0,0,0,0,0,0,0,0,0,0,0,0,0,0,0],"id":9,"left_children":[1,3,5,7,9,11,13,15,17,19,21,23,25,27,29,31,33,35,37,39,41,43,45,47,49,51,53,55,57,-1,-1,-1,-1,-1,-1,-1,-1,-1,-1,-1,-1,-1,-1,-1,-1,-1,-1,-1,-1,-1,-1,-1,-1,-1,-1,-1,-1,-1,-1],"loss_changes":[1.8303226E10,1.2269609E9,1.4835446E9,5.5522024E7,1.744E8,1.894103E8,1.8801869E8,3.254538E6,1.0821192E7,5.176717E7,2.5447104E7,1.101673E8,5.1946496E7,2.4296448E7,1.9249152E7,1.528783E5,3.4357075E5,1.948764E6,4.53508E5,1.2992112E7,6.727104E6,2.720288E6,1.162208E7,1.3434688E7,1.6043008E7,7.323136E6,4.030976E6,1.2791296E7,2.01216E6,0E0,0E0,0E0,0E0,0E0,0E0,0E0,0E0,0E0,0E0,0E0,0E0,0E0,0E0,0E0,0E0,0E0,0E0,0E0,0E0,0E0,0E0,0E0,0E0,0E0,0E0,0E0,0E0,0E0,0E0],"parents":[2147483647,0,0,1,1,2,2,3,3,4,4,5,5,6,6,7,7,8,8,9,9,10,10,11,11,12,12,13,13,14,14,15,15,16,16,17,17,18,18,19,19,20,20,21,21,22,22,23,23,24,24,25,25,26,26,27,27,28,28],"right_children":[2,4,6,8,10,12,14,16,18,20,22,24,26,28,30,32,34,36,38,40,42,44,46,48,50,52,54,56,58,-1,-1,-1,-1,-1,-1,-1,-1,-1,-1,-1,-1,-1,-1,-1,-1,-1,-1,-1,-1,-1,-1,-1,-1,-1,-1,-1,-1,-1,-1],"split_conditions":[1.2669846E-1,-5.0779253E-2,1.3100919E0,-3.8080898E-1,1.1875676E0,1.2875766E0,2.1645565E0,-5.749441E-1,-3.1097785E-1,-2.6095772E-1,-3.695663E-1,5.905428E-1,6.5955204E-1,1.7556418E0,2.6944458E0,-6.331846E-1,-5.4486835E-1,-4.8905888E-1,-1.9565365E-1,4.9868196E-1,4.3220538E-1,1.7446765E0,2.157655E0,6.469306E-1,9.323471E-1,2.157655E0,1.8740999E0,1.3028722E0,1.3028722E0,3.0165781E1,3.3255836E1,-3.186334E-3,2.839044E-1,6.4131844E-1,1.2040961E0,1.5757885E0,2.5912564E0,3.9466565E0,5.3694577E0,3.8693936E0,6.1904063E0,7.3404365E0,9.434788E0,8.059666E0,1.0759122E1,1.2372484E1,1.5866551E1,1.122634E1,1.4309443E1,1.659608E1,1.9707357E1,1.7288885E1,2.0192354E1,2.1557304E1,2.3986162E1,2.321705E1,2.6405474E1,2.6604788E1,2.9135382E1],"split_indices":[0,1,0,1,1,1,0,1,0,0,0,0,0,0,0,1,0,0,0,1,1,1,1,1,0,1,1,1,1,0,0,0,0,0,0,0,0,0,0,0,0,0,0,0,0,0,0,0,0,0,0,0,0,0,0,0,0,0,0],"split_type":[0,0,0,0,0,0,0,0,0,0,0,0,0,0,0,0,0,0,0,0,0,0,0,0,0,0,0,0,0,0,0,0,0,0,0,0,0,0,0,0,0,0,0,0,0,0,0,0,0,0,0,0,0,0,0,0,0,0,0],"sum_hessian":[1.9288E4,1.3953E4,5.335E3,1.1572E4,2.381E3,2.618E3,2.717E3,1.0642E4,9.3E2,1.676E3,7.05E2,1.456E3,1.162E3,1.415E3,1.302E3,1.0159E4,4.83E2,7.71E2,1.59E2,9.94E2,6.82E2,2.01E2,5.04E2,6.56E2,8E2,5.21E2,6.41E2,7.61E2,6.54E2,8.19E2,4.83E2,9.971E3,1.88E2,3.13E2,1.7E2,3.81E2,3.9E2,4.9E1,1.1E2,5.55E2,4.39E2,3.12E2,3.7E2,1.2E2,8.1E1,3.43E2,1.61E2,3.95E2,2.61E2,4.3E2,3.7E2,3.01E2,2.2E2,2.76E2,3.65E2,4.46E2,3.15E2,4.24E2,2.3E2],"tree_param":{"num_deleted":"0","num_feature":"6","num_nodes":"59","size_leaf_vector":"0"}},{"base_weights":[7.561534E2,1.5722499E2,2.3155706E3,2.6917927E1,7.597532E2,1.7781477E3,2.8340273E3,5.4183526E0,2.9976898E2,4.3071616E2,9.720662E2,1.2436516E3,1.9332806E3,2.5741167E3,3.1050872E3,5.78018E-1,1.0346054E2,2.2484418E2,5.0447394E2,2.940187E2,5.550436E2,8.1918976E2,1.3082778E3,1.0786332E3,1.4499019E3,1.7291704E3,2.1178071E3,2.2606884E1,2.6536846E3,2.8967443E1,3.209995E3,-3.1396172E-3,3.518806E-1,8.069365E-1,1.4030163E0,1.3716668E0,2.601625E0,4.543471E0,5.8415513E0,1.9559579E0,4.104686E0,4.3108287E0,7.3737016E0,7.4251895E0,1.007603E1,1.1312805E1,1.4717678E1,9.182584E0,1.1253457E1,1.3179916E1,1.5410955E1,1.5070348E1,1.892474E1,1.9052654E1,2.300853E1,2.5582602E1,2.785931E1,3.1274702E1,3.367624E1],"categories":[],"categories_nodes":[],"categories_segments":[],"categories_sizes":[],"default_left":[0,0,0,0,0,0,0,0,0,0,0,0,0,0,0,0,0,0,0,0,0,0,0,0,0,0,0,0,0,0,0,0,0,0,0,0,0,0,0,0,0,0,0,0,0,0,0,0,0,0,0,0,0,0,0,0,0,0,0],"id":10,"left_children":[1,3,5,7,9,11,13,15,17,19,21,23,25,27,29,31,33,35,37,39,41,43,45,47,49,51,53,-1,55,-1,57,-1,-1,-1,-1,-1,-1,-1,-1,-1,-1,-1,-1,-1,-1,-1,-1,-1,-1,-1,-1,-1,-1,-1,-1,-1,-1,-1,-1],"loss_changes":[1.8057191E10,1.0968156E9,1.4898115E9,6.73832E7,1.7311091E8,2.1625037E8,1.842688E8,5.0534975E6,1.275472E7,1.6424144E7,7.648909E7,1.872096E7,7.324723E7,2.8890112E7,1.979392E7,3.1332544E5,4.08896E5,1.871838E6,6.29284E5,5.272156E6,1.12088E7,1.4275456E7,1.1935552E7,1.47632E6,1.120576E6,3.2516864E7,3.716659E7,0E0,6.880768E6,0E0,8.63232E5,0E0,0E0,0E0,0E0,0E0,0E0,0E0,0E0,0E0,0E0,0E0,0E0,0E0,0E0,0E0,0E0,0E0,0E0,0E0,0E0,0E0,0E0,0E0,0E0,0E0,0E0,0E0,0E0],"parents":[2147483647,0,0,1,1,2,2,3,3,4,4,5,5,6,6,7,7,8,8,9,9,10,10,11,11,12,12,13,13,14,14,15,15,16,16,17,17,18,18,19,19,20,20,21,21,22,22,23,23,24,24,25,25,26,26,28,28,30,30],"right_children":[2,4,6,8,10,12,14,16,18,20,22,24,26,28,30,32,34,36,38,40,42,44,46,48,50,52,54,-1,56,-1,58,-1,-1,-1,-1,-1,-1,-1,-1,-1,-1,-1,-1,-1,-1,-1,-1,-1,-1,-1,-1,-1,-1,-1,-1,-1,-1,-1,-1],"split_conditions":[1.2669846E-1,-2.0260572E-1,1.3100919E0,-5.1568997E-1,-4.3185988E-1,3.2909128E-1,2.1645565E0,-6.0507786E-1,-3.1097785E-1,-5.823835E-1,8.3679336E-1,4.659555E-1,7.406032E-1,8.0365753E-1,1.2896498E0,-7.034521E-1,-3.7933025E-1,-4.391271E-1,-1.2432861E-1,8.3679336E-1,9.137295E-1,3.2909128E-1,-1.5860169E-1,1.6395515E-2,6.9150937E-1,1.0405596E0,1.0714104E0,2.2606884E1,1.5916812E0,2.8967443E1,2.868127E0,-3.1396172E-3,3.518806E-1,8.069365E-1,1.4030163E0,1.3716668E0,2.601625E0,4.543471E0,5.8415513E0,1.9559579E0,4.104686E0,4.3108287E0,7.3737016E0,7.4251895E0,1.007603E1,1.1312805E1,1.4717678E1,9.182584E0,1.1253457E1,1.3179916E1,1.5410955E1,1.5070348E1,1.892474E1,1.9052654E1,2.300853E1,2.5582602E1,2.785931E1,3.1274702E1,3.367624E1],"split_indices":[0,3,0,0,0,3,0,0,0,0,3,0,0,3,3,3,3,3,0,3,3,3,0,3,0,3,3,0,3,0,0,0,0,0,0,0,0,0,0,0,0,0,0,0,0,0,0,0,0,0,0,0,0,0,0,0,0,0,0],"split_type":[0,0,0,0,0,0,0,0,0,0,0,0,0,0,0,0,0,0,0,0,0,0,0,0,0,0,0,0,0,0,0,0,0,0,0,0,0,0,0,0,0,0,0,0,0,0,0,0,0,0,0,0,0,0,0,0,0,0,0],"sum_hessian":[1.9333E4,1.3969E4,5.364E3,1.1486E4,2.483E3,2.636E3,2.728E3,1.0648E4,8.38E2,9.75E2,1.508E3,5.95E2,2.041E3,1.398E3,1.33E3,1.0148E4,5E2,6.15E2,2.23E2,4.66E2,5.09E2,1.039E3,4.69E2,3.34E2,2.61E2,9.74E2,1.067E3,2.89E2,1.109E3,4.55E2,8.75E2,9.894E3,2.54E2,3.11E2,1.89E2,1.78E2,4.37E2,1.41E2,8.2E1,2.54E2,2.12E2,3.05E2,2.04E2,7.42E2,2.97E2,2.29E2,2.4E2,8E1,2.54E2,1.13E2,1.48E2,4.17E2,5.57E2,4.99E2,5.68E2,6.56E2,4.53E2,5.88E2,2.87E2],"tree_param":{"num_deleted":"0","num_feature":"6","num_nodes":"59","size_leaf_vector":"0"}},{"base_weights":[7.415867E2,1.5727983E2,2.2897656E3,2.12191E1,7.8305286E2,1.7620946E3,2.8024116E3,2.7629304E0,2.2091809E2,6.1891473E2,1.2266464E3,1.4941481E3,2.0720918E3,2.5272087E3,3.0561958E3,-6.1029103E-2,6.608251E1,1.8886993E2,4.563358E2,4.8003754E2,8.153899E2,9.6588715E2,1.3701517E3,1.2377478E3,1.7356532E3,1.8165999E3,2.2253496E3,2.2326738E1,2.6024749E3,2.9088575E1,3.2097385E1,-4.0147463E-3,1.768188E-1,5.0254714E-1,9.6478605E-1,1.4408679E0,2.4995592E0,3.651568E0,4.867235E0,3.8539104E0,6.4111056E0,6.5590625E0,9.03151E0,8.76178E0,1.1931952E1,1.2577418E1,1.5676488E1,1.1072446E1,1.4122857E1,1.6156904E1,1.8963446E1,1.6644945E1,1.938687E1,2.108746E1,2.365034E1,2.5019405E1,2.738045E1],"categories":[],"categories_nodes":[],"categories_segments":[],"categories_sizes":[],"default_left":[0,0,0,0,0,0,0,0,0,0,0,0,0,0,0,0,0,0,0,0,0,0,0,0,0,0,0,0,0,0,0,0,0,0,0,0,0,0,0,0,0,0,0,0,0,0,0,0,0,0,0,0,0,0,0,0,0],"id":11,"left_children":[1,3,5,7,9,11,13,15,17,19,21,23,25,27,29,31,33,35,37,39,41,43,45,47,49,51,53,-1,55,-1,-1,-1,-1,-1,-1,-1,-1,-1,-1,-1,-1,-1,-1,-1,-1,-1,-1,-1,-1,-1,-1,-1,-1,-1,-1,-1,-1],"loss_changes":[1.7461359E10,1.1932645E9,1.4257828E9,4.2432604E7,1.8148595E8,2.136151E8,1.7952358E8,1.884682E6,7.262356E6,4.951456E7,2.393536E7,8.472858E7,4.3218944E7,2.2831104E7,2.210816E7,6.0961734E4,2.1164775E5,2.313884E6,1.43672E5,1.6126064E7,9.98896E6,3.909696E6,7.641152E6,1.4016256E7,1.0815488E7,5.27808E6,7.228416E6,0E0,7.092736E6,0E0,0E0,0E0,0E0,0E0,0E0,0E0,0E0,0E0,0E0,0E0,0E0,0E0,0E0,0E0,0E0,0E0,0E0,0E0,0E0,0E0,0E0,0E0,0E0,0E0,0E0,0E0,0E0],"parents":[2147483647,0,0,1,1,2,2,3,3,4,4,5,5,6,6,7,7,8,8,9,9,10,10,11,11,12,12,13,13,14,14,15,15,16,16,17,17,18,18,19,19,20,20,21,21,22,22,23,23,24,24,25,25,26,26,28,28],"right_children":[2,4,6,8,10,12,14,16,18,20,22,24,26,28,30,32,34,36,38,40,42,44,46,48,50,52,54,-1,56,-1,-1,-1,-1,-1,-1,-1,-1,-1,-1,-1,-1,-1,-1,-1,-1,-1,-1,-1,-1,-1,-1,-1,-1,-1,-1,-1,-1],"split_conditions":[1.2669846E-1,-9.078283E-2,1.3100919E0,-4.1257656E-1,1.2411019E0,8.3679336E-1,2.0911937E0,-5.996522E-1,-3.1097785E-1,-2.6095772E-1,-3.1097785E-1,5.7850087E-1,6.2064755E-1,7.796626E-1,2.5862541E0,-6.5612787E-1,-4.7081706E-1,-4.8002744E-1,-2.380318E-1,5.833954E-1,2.9631087E-1,1.9841099E0,2.1123567E0,6.7163867E-1,9.323471E-1,2.010583E0,2.010583E0,2.2326738E1,1.4899886E0,2.9088575E1,3.2097385E1,-4.0147463E-3,1.768188E-1,5.0254714E-1,9.6478605E-1,1.4408679E0,2.4995592E0,3.651568E0,4.867235E0,3.8539104E0,6.4111056E0,6.5590625E0,9.03151E0,8.76178E0,1.1931952E1,1.2577418E1,1.5676488E1,1.1072446E1,1.4122857E1,1.6156904E1,1.8963446E1,1.6644945E1,1.938687E1,2.108746E1,2.365034E1,2.5019405E1,2.738045E1],"split_indices":[0,1,0,1,1,3,0,1,0,0,0,0,0,3,0,1,1,0,0,1,1,1,1,1,0,1,1,0,3,0,0,0,0,0,0,0,0,0,0,0,0,0,0,0,0,0,0,0,0,0,0,0,0,0,0,0,0],"split_type":[0,0,0,0,0,0,0,0,0,0,0,0,0,0,0,0,0,0,0,0,0,0,0,0,0,0,0,0,0,0,0,0,0,0,0,0,0,0,0,0,0,0,0,0,0,0,0,0,0,0,0,0,0,0,0,0,0],"sum_hessian":[1.9302E4,1.4014E4,5.288E3,1.1512E4,2.502E3,2.608E3,2.68E3,1.0539E4,9.73E2,1.828E3,6.74E2,1.402E3,1.206E3,1.291E3,1.389E3,1.009E4,4.49E2,8.58E2,1.15E2,1.073E3,7.55E2,2.42E2,4.32E2,6.83E2,7.19E2,4.57E2,7.49E2,2.69E2,1.022E3,7.19E2,6.7E2,9.901E3,1.89E2,2.97E2,1.52E2,4.97E2,3.61E2,3.2E1,8.3E1,6.78E2,3.95E2,2.71E2,4.84E2,1.77E2,6.5E1,2.8E2,1.52E2,3.95E2,2.88E2,4.18E2,3.01E2,2.1E2,2.47E2,4.17E2,3.32E2,5.98E2,4.24E2],"tree_param":{"num_deleted":"0","num_feature":"6","num_nodes":"57","size_leaf_vector":"0"}},{"base_weights":[7.398248E2,1.2555275E2,2.0520723E3,2.683584E1,8.088928E2,1.3472295E3,2.438609E3,4.733386E0,2.5878543E2,7.0939667E2,1.0115126E3,1.0037335E3,1.6438147E3,1.7655756E3,2.6230679E3,1.5673919E-1,1.08449745E2,4.9010507E2,2.2369743E2,1.1817499E3,6.698808E2,6.7905756E2,1.0527821E3,1.4612509E3,8.6248303E2,1.4142759E3,1.7484955E3,1.6722324E3,1.8651305E3,2.3763196E3,2.8279226E3,-3.1542631E-3,3.0144295E-1,9.3980384E-1,1.6845586E0,1.7492944E0,4.9363546E0,1.6936342E0,2.8465817E0,7.128931E0,1.3877195E1,7.3683715E0,4.718003E0,5.318708E0,7.4506335E0,1.0058742E1,1.1957921E1,1.9812357E1,1.3991169E1,7.113132E0,1.0884061E1,1.5403987E1,1.1704895E1,1.616874E1,1.902495E1,1.4915939E1,1.7052578E1,1.8727207E1,1.0457245E1,2.1732153E1,2.4864843E1,2.5441921E1,3.0037685E1],"categories":[],"categories_nodes":[],"categories_segments":[],"categories_sizes":[],"default_left":[0,0,0,0,0,0,0,0,0,0,0,0,0,0,0,0,0,0,0,0,0,0,0,0,0,0,0,0,0,0,0,0,0,0,0,0,0,0,0,0,0,0,0,0,0,0,0,0,0,0,0,0,0,0,0,0,0,0,0,0,0,0,0],"id":12,"left_children":[1,3,5,7,9,11,13,15,17,19,21,23,25,27,29,31,33,35,37,39,41,43,45,47,49,51,53,55,57,59,61,-1,-1,-1,-1,-1,-1,-1,-1,-1,-1,-1,-1,-1,-1,-1,-1,-1,-1,-1,-1,-1,-1,-1,-1,-1,-1,-1,-1,-1,-1,-1,-1],"loss_changes":[1.5580405E10,8.881875E8,1.6758088E9,5.8986068E7,3.2788096E7,2.2094874E8,4.8934912E8,4.9868985E6,8.015024E6,2.0076352E7,6.762688E6,6.4333696E7,2.5664256E7,4.863488E6,1.5104E8,1.4249244E5,3.69672E5,5.941E4,2.836752E6,7.219176E6,1.3366048E7,2.15778E5,2.03728E6,4.917472E6,2.5796672E7,9.634816E6,1.3139712E7,1.58976E5,5.73056E5,2.6413568E7,7.717581E7,0E0,0E0,0E0,0E0,0E0,0E0,0E0,0E0,0E0,0E0,0E0,0E0,0E0,0E0,0E0,0E0,0E0,0E0,0E0,0E0,0E0,0E0,0E0,0E0,0E0,0E0,0E0,0E0,0E0,0E0,0E0,0E0],"parents":[2147483647,0,0,1,1,2,2,3,3,4,4,5,5,6,6,7,7,8,8,9,9,10,10,11,11,12,12,13,13,14,14,15,15,16,16,17,17,18,18,19,19,20,20,21,21,22,22,23,23,24,24,25,25,26,26,27,27,28,28,29,29,30,30],"right_children":[2,4,6,8,10,12,14,16,18,20,22,24,26,28,30,32,34,36,38,40,42,44,46,48,50,52,54,56,58,60,62,-1,-1,-1,-1,-1,-1,-1,-1,-1,-1,-1,-1,-1,-1,-1,-1,-1,-1,-1,-1,-1,-1,-1,-1,-1,-1,-1,-1,-1,-1,-1,-1],"split_conditions":[3.2909128E-1,-2.0260572E-1,1.1238347E-1,-4.204644E-1,4.1669443E-1,-3.7919542E-1,8.3679336E-1,-5.9185666E-1,-1.1711831E0,-1.2062958E0,-3.387955E-2,-1.9977303E-1,8.3679336E-1,1.0565269E0,1.2125843E0,-7.034521E-1,2.840461E-1,-1.1568818E0,1.1238347E-1,-3.387955E-2,8.145986E-1,1.356239E-1,2.205428E-1,-1.011225E0,-5.703649E-1,7.328154E-1,-1.13898806E-1,5.206698E-1,2.336156E0,4.7911707E-1,1.2896498E0,-3.1542631E-3,3.0144295E-1,9.3980384E-1,1.6845586E0,1.7492944E0,4.9363546E0,1.6936342E0,2.8465817E0,7.128931E0,1.3877195E1,7.3683715E0,4.718003E0,5.318708E0,7.4506335E0,1.0058742E1,1.1957921E1,1.9812357E1,1.3991169E1,7.113132E0,1.0884061E1,1.5403987E1,1.1704895E1,1.616874E1,1.902495E1,1.4915939E1,1.7052578E1,1.8727207E1,1.0457245E1,2.1732153E1,2.4864843E1,2.5441921E1,3.0037685E1],"split_indices":[3,3,4,3,4,4,3,3,4,4,3,5,3,4,4,3,4,5,4,3,5,5,3,4,4,3,4,3,5,4,3,0,0,0,0,0,0,0,0,0,0,0,0,0,0,0,0,0,0,0,0,0,0,0,0,0,0,0,0,0,0,0,0],"split_type":[0,0,0,0,0,0,0,0,0,0,0,0,0,0,0,0,0,0,0,0,0,0,0,0,0,0,0,0,0,0,0,0,0,0,0,0,0,0,0,0,0,0,0,0,0,0,0,0,0,0,0,0,0,0,0,0,0,0,0,0,0,0,0],"sum_hessian":[1.9328E4,1.3166E4,6.162E3,1.1505E4,1.661E3,2.184E3,3.978E3,1.0505E4,1E3,1.117E3,5.44E2,1.014E3,1.17E3,8.58E2,3.12E3,1.0062E4,4.43E2,1.3E2,8.7E2,8.4E1,1.033E3,6.2E1,4.82E2,2.37E2,7.77E2,3.71E2,7.99E2,4.52E2,4.06E2,1.421E3,1.699E3,9.907E3,1.55E2,3.59E2,8.4E1,2E0,1.28E2,4.62E2,4.08E2,2.7E1,5.7E1,7.7E2,2.63E2,2.2E1,4E1,3.69E2,1.13E2,2.2E1,2.15E2,4.68E2,3.09E2,2.41E2,1.3E2,4.37E2,3.62E2,7.7E1,3.75E2,4.01E2,5E0,5.07E2,9.14E2,6.56E2,1.043E3],"tree_param":{"num_deleted":"0","num_feature":"6","num_nodes":"63","size_leaf_vector":"0"}},{"base_weights":[7.3028094E2,1.24153534E2,2.0359639E3,2.6524635E1,7.981222E2,1.3547062E3,2.4269575E3,4.5319796E0,2.5794882E2,7.1295435E2,1.013235E3,1.00950665E3,1.6441948E3,1.752828E3,2.611261E3,1.9804642E-1,1.0626808E2,4.8902084E2,2.2377336E2,1.1487218E3,6.722578E2,6.066653E0,1.0464987E3,1.4116377E3,8.6758813E2,1.4189575E3,1.744729E3,1.6540828E3,1.8513927E3,2.3701243E3,2.8075596E3,-3.0480002E-3,3.0462107E-1,9.0444183E-1,1.6943043E0,1.7376324E0,4.926459E0,1.6959599E0,2.8370552E0,7.1391697E0,1.3684833E1,6.996013E0,2.3369102E0,9.971483E0,1.2265961E1,1.8560032E1,1.3491689E1,7.1382866E0,1.1381358E1,1.5343377E1,1.1905588E1,1.5692324E1,1.8656954E1,1.4817488E1,1.7041403E1,1.8548618E1,7.612896E0,2.1948044E1,2.461894E1,2.5514444E1,2.9737524E1],"categories":[],"categories_nodes":[],"categories_segments":[],"categories_sizes":[],"default_left":[0,0,0,0,0,0,0,0,0,0,0,0,0,0,0,0,0,0,0,0,0,0,0,0,0,0,0,0,0,0,0,0,0,0,0,0,0,0,0,0,0,0,0,0,0,0,0,0,0,0,0,0,0,0,0,0,0,0,0,0,0],"id":13,"left_children":[1,3,5,7,9,11,13,15,17,19,21,23,25,27,29,31,33,35,37,39,41,-1,43,45,47,49,51,53,55,57,59,-1,-1,-1,-1,-1,-1,-1,-1,-1,-1,-1,-1,-1,-1,-1,-1,-1,-1,-1,-1,-1,-1,-1,-1,-1,-1,-1,-1,-1,-1],"loss_changes":[1.5284254E10,8.679311E8,1.6276808E9,5.864666E7,2.9854912E7,2.2168678E8,4.786094E8,4.640195E6,7.787564E6,2.0491136E7,5.734944E6,5.710067E7,2.5014272E7,5.093632E6,1.3781197E8,1.5363678E5,4.144495E5,6.0678E4,2.786488E6,8.673904E6,1.3015648E7,0E0,2.634208E6,4.852064E6,3.0719872E7,8.187328E6,1.4798592E7,1.167104E6,1.42208E5,1.673472E7,6.3794176E7,0E0,0E0,0E0,0E0,0E0,0E0,0E0,0E0,0E0,0E0,0E0,0E0,0E0,0E0,0E0,0E0,0E0,0E0,0E0,0E0,0E0,0E0,0E0,0E0,0E0,0E0,0E0,0E0,0E0,0E0],"parents":[2147483647,0,0,1,1,2,2,3,3,4,4,5,5,6,6,7,7,8,8,9,9,10,10,11,11,12,12,13,13,14,14,15,15,16,16,17,17,18,18,19,19,20,20,22,22,23,23,24,24,25,25,26,26,27,27,28,28,29,29,30,30],"right_children":[2,4,6,8,10,12,14,16,18,20,22,24,26,28,30,32,34,36,38,40,42,-1,44,46,48,50,52,54,56,58,60,-1,-1,-1,-1,-1,-1,-1,-1,-1,-1,-1,-1,-1,-1,-1,-1,-1,-1,-1,-1,-1,-1,-1,-1,-1,-1,-1,-1,-1,-1],"split_conditions":[3.2909128E-1,-2.0260572E-1,1.3579252E-1,-4.204644E-1,5.883571E-1,-3.713924E-1,8.3679336E-1,-5.9185666E-1,-1.1711831E0,-1.1399717E0,-9.253377E-2,-3.616487E-2,8.3679336E-1,1.0565269E0,1.2125843E0,-7.034521E-1,2.840461E-1,-1.1568818E0,1.3579252E-1,1.059004E-1,1.9434962E0,6.066653E0,2.205428E-1,-8.7467515E-1,-5.469558E-1,7.328154E-1,-1.6071542E-1,5.762771E-1,2.5652077E0,4.7911707E-1,1.3075509E0,-3.0480002E-3,3.0462107E-1,9.0444183E-1,1.6943043E0,1.7376324E0,4.926459E0,1.6959599E0,2.8370552E0,7.1391697E0,1.3684833E1,6.996013E0,2.3369102E0,9.971483E0,1.2265961E1,1.8560032E1,1.3491689E1,7.1382866E0,1.1381358E1,1.5343377E1,1.1905588E1,1.5692324E1,1.8656954E1,1.4817488E1,1.7041403E1,1.8548618E1,7.612896E0,2.1948044E1,2.461894E1,2.5514444E1,2.9737524E1],"split_indices":[3,3,4,3,4,4,3,3,4,4,3,5,3,4,4,3,4,5,4,3,5,0,3,4,4,3,4,3,5,4,3,0,0,0,0,0,0,0,0,0,0,0,0,0,0,0,0,0,0,0,0,0,0,0,0,0,0,0,0,0,0],"split_type":[0,0,0,0,0,0,0,0,0,0,0,0,0,0,0,0,0,0,0,0,0,0,0,0,0,0,0,0,0,0,0,0,0,0,0,0,0,0,0,0,0,0,0,0,0,0,0,0,0,0,0,0,0,0,0,0,0,0,0,0,0],"sum_hessian":[1.9312E4,1.319E4,6.122E3,1.1522E4,1.668E3,2.234E3,3.888E3,1.0523E4,9.99E2,1.198E3,4.7E2,1.021E3,1.213E3,8.37E2,3.051E3,1.0094E4,4.29E2,1.27E2,8.72E2,1E2,1.098E3,3.7E1,4.33E2,2.64E2,7.57E2,3.79E2,8.34E2,4.27E2,4.1E2,1.375E3,1.676E3,9.93E3,1.64E2,3.45E2,8.4E1,2E0,1.25E2,4.6E2,4.12E2,3.5E1,6.5E1,1.033E3,6.5E1,3.45E2,8.8E1,2.9E1,2.35E2,4.85E2,2.72E2,2.48E2,1.31E2,3.46E2,4.88E2,1.03E2,3.24E2,4.08E2,2E0,4.81E2,8.94E2,6.66E2,1.01E3],"tree_param":{"num_deleted":"0","num_feature":"6","num_nodes":"61","size_leaf_vector":"0"}},{"base_weights":[7.1759503E2,1.5353777E2,2.2342603E3,2.6435505E1,7.373969E2,1.752702E3,2.7625718E3,5.5197263E0,2.965657E2,4.109147E2,9.433847E2,1.2440328E3,1.9014381E3,2.5603757E3,3.050189E3,4.9192935E-1,1.04298485E2,2.2663335E2,5.012875E2,2.6955392E2,5.337796E2,7.971025E2,1.2609507E3,1.0633834E3,1.4674558E3,1.6724071E3,2.0805708E3,2.2218874E1,2.621889E3,2.9649658E1,3.225176E1,-3.0142213E-3,3.0997154E-1,7.8350204E-1,1.4483209E0,1.3561577E0,2.583325E0,4.5350323E0,5.7178955E0,1.7938105E0,3.8216264E0,4.161586E0,7.0214505E0,7.1830683E0,9.734495E0,1.081819E1,1.429131E1,9.88274E0,1.1699746E1,1.3566391E1,1.5772296E1,1.4555923E1,1.816412E1,1.8802372E1,2.2353256E1,2.5105295E1,2.7085035E1],"categories":[],"categories_nodes":[],"categories_segments":[],"categories_sizes":[],"default_left":[0,0,0,0,0,0,0,0,0,0,0,0,0,0,0,0,0,0,0,0,0,0,0,0,0,0,0,0,0,0,0,0,0,0,0,0,0,0,0,0,0,0,0,0,0,0,0,0,0,0,0,0,0,0,0,0,0],"id":14,"left_children":[1,3,5,7,9,11,13,15,17,19,21,23,25,27,29,31,33,35,37,39,41,43,45,47,49,51,53,-1,55,-1,-1,-1,-1,-1,-1,-1,-1,-1,-1,-1,-1,-1,-1,-1,-1,-1,-1,-1,-1,-1,-1,-1,-1,-1,-1,-1,-1],"loss_changes":[1.6463485E10,1.04106995E9,1.3224305E9,6.5097476E7,1.6827891E8,2.043305E8,1.367634E8,5.3115085E6,1.17406E7,1.673808E7,7.039501E7,2.3503872E7,8.316928E7,2.469888E7,5.663744E6,2.4633086E5,5.33473E5,1.750892E6,4.48156E5,4.541478E6,9.985712E6,1.3960384E7,1.3005056E7,1.621856E6,1.205568E6,2.6455296E7,3.2411136E7,0E0,5.111808E6,0E0,0E0,0E0,0E0,0E0,0E0,0E0,0E0,0E0,0E0,0E0,0E0,0E0,0E0,0E0,0E0,0E0,0E0,0E0,0E0,0E0,0E0,0E0,0E0,0E0,0E0,0E0,0E0],"parents":[2147483647,0,0,1,1,2,2,3,3,4,4,5,5,6,6,7,7,8,8,9,9,10,10,11,11,12,12,13,13,14,14,15,15,16,16,17,17,18,18,19,19,20,20,21,21,22,22,23,23,24,24,25,25,26,26,28,28],"right_children":[2,4,6,8,10,12,14,16,18,20,22,24,26,28,30,32,34,36,38,40,42,44,46,48,50,52,54,-1,56,-1,-1,-1,-1,-1,-1,-1,-1,-1,-1,-1,-1,-1,-1,-1,-1,-1,-1,-1,-1,-1,-1,-1,-1,-1,-1,-1,-1],"split_conditions":[1.4036135E-1,-2.0260572E-1,1.4251382E0,-5.117532E-1,-4.3185988E-1,3.919351E-1,2.3468058E0,-6.0507786E-1,-2.9453608E-1,-5.823835E-1,8.3679336E-1,4.972181E-1,7.5125563E-1,8.0365753E-1,2.8430705E0,-7.034521E-1,-3.7933025E-1,-4.391271E-1,-1.162235E-1,8.3679336E-1,9.137295E-1,3.2909128E-1,-1.5165444E-1,3.4947336E-1,7.776552E-1,9.8495245E-1,1.0714104E0,2.2218874E1,1.8889824E0,2.9649658E1,3.225176E1,-3.0142213E-3,3.0997154E-1,7.8350204E-1,1.4483209E0,1.3561577E0,2.583325E0,4.5350323E0,5.7178955E0,1.7938105E0,3.8216264E0,4.161586E0,7.0214505E0,7.1830683E0,9.734495E0,1.081819E1,1.429131E1,9.88274E0,1.1699746E1,1.3566391E1,1.5772296E1,1.4555923E1,1.816412E1,1.8802372E1,2.2353256E1,2.5105295E1,2.7085035E1],"split_indices":[0,3,0,0,0,3,0,0,0,0,3,0,0,3,0,3,3,3,0,3,3,3,0,0,0,3,3,0,0,0,0,0,0,0,0,0,0,0,0,0,0,0,0,0,0,0,0,0,0,0,0,0,0,0,0,0,0],"split_type":[0,0,0,0,0,0,0,0,0,0,0,0,0,0,0,0,0,0,0,0,0,0,0,0,0,0,0,0,0,0,0,0,0,0,0,0,0,0,0,0,0,0,0,0,0,0,0,0,0,0,0,0,0,0,0,0,0],"sum_hessian":[1.9244E4,1.4028E4,5.216E3,1.1521E4,2.507E3,2.731E3,2.485E3,1.0694E4,8.27E2,9.71E2,1.536E3,6.2E2,2.111E3,1.465E3,1.02E3,1.0177E4,5.17E2,6.18E2,2.09E2,4.53E2,5.18E2,1.054E3,4.82E2,3.46E2,2.74E2,9.31E2,1.18E3,2.31E2,1.234E3,6.98E2,3.22E2,9.92E3,2.57E2,3.17E2,2E2,1.61E2,4.57E2,1.29E2,8E1,2.53E2,2E2,3.07E2,2.11E2,7.32E2,3.22E2,2.37E2,2.45E2,2.09E2,1.37E2,1.43E2,1.31E2,3.76E2,5.55E2,5.2E2,6.6E2,5.53E2,6.81E2],"tree_param":{"num_deleted":"0","num_feature":"6","num_nodes":"57","size_leaf_vector":"0"}},{"base_weights":[7.100856E2,5.6293736E1,1.8616608E3,1.2786498E1,5.220209E2,1.3253218E3,2.2610933E3,1.455895E0,1.5942017E2,4.1654758E2,7.882165E2,1.0383229E3,1.5521482E3,1.470707E3,2.5787327E3,-1.8995102E-1,4.6732964E1,1.24593475E2,2.1253061E2,4.7457733E2,2.1958916E2,6.296291E2,1.0836707E3,9.466089E2,1.4536313E3,7.505429E0,1.6853148E3,9.7645447E2,1.7257153E3,2.752814E3,2.3436924E3,-4.2823963E-3,1.3093355E-1,3.9642394E-1,6.302234E-1,1.0457653E0,1.6350148E0,1.6838561E0,2.3517582E0,3.7486033E0,6.2042007E0,1.6681699E0,2.6530895E0,7.5484843E0,2.886887E0,4.9826627E0,1.134965E1,1.0302425E1,6.3304863E0,1.2208319E1,1.5176267E1,1.4594247E1,1.7851439E1,1.0880095E1,8.948302E0,1.9463562E1,1.5772562E1,2.5601881E1,3.006159E1,2.0078495E1,2.5040363E1],"categories":[],"categories_nodes":[],"categories_segments":[],"categories_sizes":[],"default_left":[0,0,0,0,0,0,0,0,0,0,0,0,0,0,0,0,0,0,0,0,0,0,0,0,0,0,0,0,0,0,0,0,0,0,0,0,0,0,0,0,0,0,0,0,0,0,0,0,0,0,0,0,0,0,0,0,0,0,0,0,0],"id":15,"left_children":[1,3,5,7,9,11,13,15,17,19,21,23,25,27,29,31,33,35,37,39,41,43,45,47,49,-1,51,53,55,57,59,-1,-1,-1,-1,-1,-1,-1,-1,-1,-1,-1,-1,-1,-1,-1,-1,-1,-1,-1,-1,-1,-1,-1,-1,-1,-1,-1,-1,-1,-1],"loss_changes":[1.4463675E10,2.4831027E8,1.4874112E9,1.8622936E7,2.9067776E7,1.9186278E8,9.969234E8,7.754544E5,1.460648E6,8.490744E6,1.3186864E7,4.871181E7,1.7572198E8,1.4262886E8,1.0983219E8,3.1791158E4,3.9659438E4,3.629655E5,2.77296E5,8.202384E6,3.73145E5,8.10708E6,2.497344E6,2.7669888E7,1.6632E6,0E0,2.943872E7,2.595776E6,2.162816E7,7.170253E7,6.045389E7,0E0,0E0,0E0,0E0,0E0,0E0,0E0,0E0,0E0,0E0,0E0,0E0,0E0,0E0,0E0,0E0,0E0,0E0,0E0,0E0,0E0,0E0,0E0,0E0,0E0,0E0,0E0,0E0,0E0,0E0],"parents":[2147483647,0,0,1,1,2,2,3,3,4,4,5,5,6,6,7,7,8,8,9,9,10,10,11,11,12,12,13,13,14,14,15,15,16,16,17,17,18,18,19,19,20,20,21,21,22,22,23,23,24,24,26,26,27,27,28,28,29,29,30,30],"right_children":[2,4,6,8,10,12,14,16,18,20,22,24,26,28,30,32,34,36,38,40,42,44,46,48,50,-1,52,54,56,58,60,-1,-1,-1,-1,-1,-1,-1,-1,-1,-1,-1,-1,-1,-1,-1,-1,-1,-1,-1,-1,-1,-1,-1,-1,-1,-1,-1,-1,-1,-1],"split_conditions":[2.4983604E-1,-1.7726122E-1,2.840461E-1,-4.531684E-1,1.4806215E-1,-3.4798336E-1,8.3679336E-1,-6.1082965E-1,1.3579252E-1,6.1719276E-2,6.858925E-1,1.5723081E0,3.2909128E-1,3.2909128E-1,1.3311099E0,-6.7730623E-1,-5.11056E-1,-2.9786032E-1,-3.1021437E-1,-2.2698154E-1,1.3344178E-2,2.0416531E-1,-3.387955E-2,1.2340426E0,1.7446765E0,7.505429E0,8.3679336E-1,3.8631886E-1,6.628144E-1,1.3284988E0,1.4899886E0,-4.2823963E-3,1.3093355E-1,3.9642394E-1,6.302234E-1,1.0457653E0,1.6350148E0,1.6838561E0,2.3517582E0,3.7486033E0,6.2042007E0,1.6681699E0,2.6530895E0,7.5484843E0,2.886887E0,4.9826627E0,1.134965E1,1.0302425E1,6.3304863E0,1.2208319E1,1.5176267E1,1.4594247E1,1.7851439E1,1.0880095E1,8.948302E0,1.9463562E1,1.5772562E1,2.5601881E1,3.006159E1,2.0078495E1,2.5040363E1],"split_indices":[1,1,4,1,1,4,3,1,4,3,4,1,3,3,1,1,1,1,1,3,1,3,3,3,1,0,3,1,1,3,3,0,0,0,0,0,0,0,0,0,0,0,0,0,0,0,0,0,0,0,0,0,0,0,0,0,0,0,0,0,0],"split_type":[0,0,0,0,0,0,0,0,0,0,0,0,0,0,0,0,0,0,0,0,0,0,0,0,0,0,0,0,0,0,0,0,0,0,0,0,0,0,0,0,0,0,0,0,0,0,0,0,0,0,0,0,0,0,0,0,0,0,0,0,0],"sum_hessian":[1.921E4,1.2254E4,6.956E3,1.1208E4,1.046E3,2.971E3,3.985E3,1.0405E4,8.03E2,7.51E2,2.95E2,1.314E3,1.657E3,1.144E3,2.841E3,1.0041E4,3.64E2,4.87E2,3.16E2,5.79E2,1.72E2,1.94E2,1.01E2,1.079E3,2.35E2,2.37E2,1.42E3,3.91E2,7.53E2,1.626E3,1.215E3,9.865E3,1.76E2,2.56E2,1.08E2,3.24E2,1.63E2,1.1E2,2.06E2,3.46E2,2.33E2,8.2E1,9E1,1.41E2,5.3E1,9E0,9.2E1,8.5E2,2.29E2,5.5E1,1.8E2,4.4E2,9.8E2,1.6E2,2.31E2,2.98E2,4.55E2,9.3E2,6.96E2,3.97E2,8.18E2],"tree_param":{"num_deleted":"0","num_feature":"6","num_nodes":"61","size_leaf_vector":"0"}},{"base_weights":[7.034283E2,1.487896E2,2.1886392E3,3.6223087E1,7.55373E2,1.7156107E3,2.7063384E3,5.7112527E0,2.5821826E2,5.2378094E2,9.3012854E2,1.3920492E3,1.9260616E3,2.4795637E3,2.955669E3,2.6697118E0,2.695338E1,2.3300952E2,3.658462E2,6.3168933E2,3.24439E2,5.9E2,9.8484766E2,1.4745634E3,1.2037229E3,1.7605231E3,2.073635E3,2.3356424E1,2.591043E1,2.8387026E1,3.0987417E1,1.8965095E-2,7.788328E-2,1.5362893E-1,3.9196053E-1,1.9960302E0,2.9364717E0,2.3474753E0,4.6014423E0,5.07513E0,7.052591E0,2.9428823E0,5.7446594E0,5.389842E0,7.670869E0,8.998358E0,1.1049442E1,1.2991745E1,1.5756976E1,1.05603695E1,1.3258506E1,1.4664645E1,1.798185E1,1.941489E1,2.1196175E1],"categories":[],"categories_nodes":[],"categories_segments":[],"categories_sizes":[],"default_left":[0,0,0,0,0,0,0,0,0,0,0,0,0,0,0,0,0,0,0,0,0,0,0,0,0,0,0,0,0,0,0,0,0,0,0,0,0,0,0,0,0,0,0,0,0,0,0,0,0,0,0,0,0,0,0],"id":16,"left_children":[1,3,5,7,9,11,13,15,17,19,21,23,25,27,29,31,33,35,37,39,41,43,45,47,49,51,53,-1,-1,-1,-1,-1,-1,-1,-1,-1,-1,-1,-1,-1,-1,-1,-1,-1,-1,-1,-1,-1,-1,-1,-1,-1,-1,-1,-1],"loss_changes":[1.589321E10,9.592521E8,1.2800307E9,8.027104E7,8.851072E7,1.8416845E8,1.3419725E8,6.7315175E5,3.8E6,2.0187184E7,2.2720512E7,1.5085568E7,3.6901376E7,1.5078912E7,1.1067392E7,3.6063863E4,1.845755E5,2.297268E6,3.229816E6,5.251344E6,2.35634E6,1.176576E6,1.0001472E7,1.1256192E7,4.66016E6,6.100992E6,1.182976E6,0E0,0E0,0E0,0E0,0E0,0E0,0E0,0E0,0E0,0E0,0E0,0E0,0E0,0E0,0E0,0E0,0E0,0E0,0E0,0E0,0E0,0E0,0E0,0E0,0E0,0E0,0E0,0E0],"parents":[2147483647,0,0,1,1,2,2,3,3,4,4,5,5,6,6,7,7,8,8,9,9,10,10,11,11,12,12,13,13,14,14,15,15,16,16,17,17,18,18,19,19,20,20,21,21,22,22,23,23,24,24,25,25,26,26],"right_children":[2,4,6,8,10,12,14,16,18,20,22,24,26,28,30,32,34,36,38,40,42,44,46,48,50,52,54,-1,-1,-1,-1,-1,-1,-1,-1,-1,-1,-1,-1,-1,-1,-1,-1,-1,-1,-1,-1,-1,-1,-1,-1,-1,-1,-1,-1],"split_conditions":[1.4036135E-1,-4.566384E-1,1.4251382E0,-6.129514E-1,-2.6095772E-1,5.905428E-1,2.2382436E0,9.2912424E-1,1.5508361E0,3.1915894E-1,-8.356608E-1,8.302446E-1,9.469363E-1,1.7556418E0,2.6685095E0,3.0741265E-1,-7.342245E-1,-5.2379507E-1,-5.823835E-1,-3.9619738E-1,-3.1097785E-1,-1.2941167E-2,-2.3130443E-2,2.9157966E-1,3.5966268E-1,-6.1328E-1,1.0560081E0,2.3356424E1,2.591043E1,2.8387026E1,3.0987417E1,1.8965095E-2,7.788328E-2,1.5362893E-1,3.9196053E-1,1.9960302E0,2.9364717E0,2.3474753E0,4.6014423E0,5.07513E0,7.052591E0,2.9428823E0,5.7446594E0,5.389842E0,7.670869E0,8.998358E0,1.1049442E1,1.2991745E1,1.5756976E1,1.05603695E1,1.3258506E1,1.4664645E1,1.798185E1,1.941489E1,2.1196175E1],"split_indices":[0,0,0,0,0,0,0,5,5,4,4,4,0,0,0,5,4,0,0,0,0,0,0,0,0,4,0,0,0,0,0,0,0,0,0,0,0,0,0,0,0,0,0,0,0,0,0,0,0,0,0,0,0,0,0],"split_type":[0,0,0,0,0,0,0,0,0,0,0,0,0,0,0,0,0,0,0,0,0,0,0,0,0,0,0,0,0,0,0,0,0,0,0,0,0,0,0,0,0,0,0,0,0,0,0,0,0,0,0,0,0,0,0],"sum_hessian":[1.9293E4,1.4048E4,5.245E3,1.185E4,2.198E3,2.743E3,2.502E3,1.0419E4,1.431E3,9.47E2,1.251E3,1.084E3,1.659E3,1.316E3,1.186E3,9.115E3,1.304E3,1.162E3,2.69E2,6.13E2,3.34E2,1.75E2,1.076E3,7.49E2,3.35E2,7.88E2,8.71E2,5.84E2,7.32E2,6.64E2,5.22E2,7.92E3,1.195E3,6.71E2,6.33E2,7.52E2,4.1E2,1.14E2,1.55E2,2.31E2,3.82E2,3E2,3.4E1,1.39E2,3.6E1,6.35E2,4.41E2,2.79E2,4.7E2,1.56E2,1.79E2,9.4E1,6.94E2,2.36E2,6.35E2],"tree_param":{"num_deleted":"0","num_feature":"6","num_nodes":"55","size_leaf_vector":"0"}},{"base_weights":[7.018739E2,1.4744438E2,2.1660498E3,3.2320927E1,7.946654E2,1.6692554E3,2.6427742E3,4.9557033E0,2.864797E2,6.4120526E2,1.1824973E3,1.4233182E3,1.9558496E3,2.430739E3,2.9294724E3,7.0515555E-1,9.873076E1,2.106276E2,5.0442047E2,4.6376175E2,8.039298E2,9.757729E2,1.3371029E3,1.1761597E3,1.6428729E3,1.7076987E3,2.099002E3,2.1271051E1,2.4994624E3,2.847668E1,3.1335173E1,-3.178316E-3,3.5705015E-1,7.0405155E-1,1.3063142E0,1.7205327E0,2.7086122E0,4.3859577E0,6.1951237E0,3.731573E0,5.9655004E0,7.027459E0,9.015773E0,8.754919E0,1.14643345E1,1.22824135E1,1.526447E1,1.0454102E1,1.3294243E1,1.5311961E1,1.7915209E1,1.583352E1,1.862657E1,1.9897776E1,2.2296103E1,2.3752815E1,2.5888987E1],"categories":[],"categories_nodes":[],"categories_segments":[],"categories_sizes":[],"default_left":[0,0,0,0,0,0,0,0,0,0,0,0,0,0,0,0,0,0,0,0,0,0,0,0,0,0,0,0,0,0,0,0,0,0,0,0,0,0,0,0,0,0,0,0,0,0,0,0,0,0,0,0,0,0,0,0,0],"id":17,"left_children":[1,3,5,7,9,11,13,15,17,19,21,23,25,27,29,31,33,35,37,39,41,43,45,47,49,51,53,-1,55,-1,-1,-1,-1,-1,-1,-1,-1,-1,-1,-1,-1,-1,-1,-1,-1,-1,-1,-1,-1,-1,-1,-1,-1,-1,-1,-1,-1],"loss_changes":[1.5688186E10,1.04453446E9,1.2527063E9,8.278528E7,1.2523866E8,1.806167E8,1.5743795E8,4.2836345E6,1.9020432E7,4.3487424E7,1.7839808E7,7.425562E7,3.9008256E7,2.7277312E7,1.0206208E7,3.6815225E5,4.118825E5,1.951584E6,1.985904E6,8.548144E6,7.181792E6,3.445936E6,5.133376E6,1.1916352E7,9.55776E6,5.606144E6,6.348544E6,0E0,7.93344E6,0E0,0E0,0E0,0E0,0E0,0E0,0E0,0E0,0E0,0E0,0E0,0E0,0E0,0E0,0E0,0E0,0E0,0E0,0E0,0E0,0E0,0E0,0E0,0E0,0E0,0E0,0E0,0E0],"parents":[2147483647,0,0,1,1,2,2,3,3,4,4,5,5,6,6,7,7,8,8,9,9,10,10,11,11,12,12,13,13,14,14,15,15,16,16,17,17,18,18,19,19,20,20,21,21,22,22,23,23,24,24,25,25,26,26,28,28],"right_children":[2,4,6,8,10,12,14,16,18,20,22,24,26,28,30,32,34,36,38,40,42,44,46,48,50,52,54,-1,56,-1,-1,-1,-1,-1,-1,-1,-1,-1,-1,-1,-1,-1,-1,-1,-1,-1,-1,-1,-1,-1,-1,-1,-1,-1,-1,-1,-1],"split_conditions":[1.4036135E-1,1.2570727E-1,1.3100919E0,-3.372756E-1,1.3869972E0,8.3679336E-1,2.2576497E0,-5.11056E-1,-3.1097785E-1,-3.4247205E-1,-2.380318E-1,5.7850087E-1,6.2064755E-1,8.0365753E-1,2.8430705E0,-6.2083054E-1,-5.4903674E-1,-4.566384E-1,-9.376075E-2,6.8987566E-1,-1.162235E-1,1.9841099E0,2.1817749E0,6.469306E-1,9.323471E-1,2.157655E0,2.010583E0,2.1271051E1,1.7764372E0,2.847668E1,3.1335173E1,-3.178316E-3,3.5705015E-1,7.0405155E-1,1.3063142E0,1.7205327E0,2.7086122E0,4.3859577E0,6.1951237E0,3.731573E0,5.9655004E0,7.027459E0,9.015773E0,8.754919E0,1.14643345E1,1.22824135E1,1.526447E1,1.0454102E1,1.3294243E1,1.5311961E1,1.7915209E1,1.583352E1,1.862657E1,1.9897776E1,2.2296103E1,2.3752815E1,2.5888987E1],"split_indices":[0,1,0,1,1,3,0,1,0,0,0,0,0,3,0,1,0,0,0,1,0,1,1,1,0,1,1,0,0,0,0,0,0,0,0,0,0,0,0,0,0,0,0,0,0,0,0,0,0,0,0,0,0,0,0,0,0],"split_type":[0,0,0,0,0,0,0,0,0,0,0,0,0,0,0,0,0,0,0,0,0,0,0,0,0,0,0,0,0,0,0,0,0,0,0,0,0,0,0,0,0,0,0,0,0,0,0,0,0,0,0,0,0,0,0,0,0],"sum_hessian":[1.9325E4,1.4018E4,5.307E3,1.1902E4,2.116E3,2.601E3,2.706E3,1.0746E4,1.156E3,1.518E3,5.98E2,1.403E3,1.198E3,1.561E3,1.145E3,1.0281E4,4.65E2,8.59E2,2.97E2,7.28E2,7.9E2,2.59E2,3.39E2,6.63E2,7.4E2,4.43E2,7.55E2,2.94E2,1.267E3,8.28E2,3.17E2,9.99E3,2.91E2,2.48E2,2.17E2,5.26E2,3.33E2,1.92E2,1.05E2,4.35E2,2.93E2,3.92E2,3.98E2,1.67E2,9.2E1,2.2E2,1.19E2,3.62E2,3.01E2,4.29E2,3.11E2,2.52E2,1.91E2,4.2E2,3.35E2,5.42E2,7.25E2],"tree_param":{"num_deleted":"0","num_feature":"6","num_nodes":"57","size_leaf_vector":"0"}},{"base_weights":[6.9134766E2,1.4472386E2,2.1415107E3,1.9425344E1,7.1741E2,1.6434629E3,2.6159622E3,1.6505343E0,1.9282364E2,5.6543567E2,1.1156656E3,1.3967933E3,1.9290087E3,2.4179758E3,2.9287214E3,-1.6769853E-1,5.0093895E1,1.5317578E2,3.4815125E2,3.8645276E2,7.132158E2,9.259451E2,1.3043549E3,1.1521841E3,1.6241266E3,1.6891554E3,2.0700852E3,2.2564714E3,2.5572466E3,2.855599E1,3.1192448E1,-4.7310037E-3,1.397047E-1,3.468136E-1,6.956845E-1,1.1566591E0,1.9677067E0,2.808113E0,4.436744E0,2.9247384E0,5.120831E0,5.7228594E0,7.937973E0,8.330353E0,1.1467522E1,1.1868496E1,1.4792198E1,1.0229592E1,1.3029115E1,1.508972E1,1.7733759E1,1.5679742E1,1.8369598E1,1.9427113E1,2.1808056E1,2.1239965E1,2.4257093E1,2.4648163E1,2.6885582E1],"categories":[],"categories_nodes":[],"categories_segments":[],"categories_sizes":[],"default_left":[0,0,0,0,0,0,0,0,0,0,0,0,0,0,0,0,0,0,0,0,0,0,0,0,0,0,0,0,0,0,0,0,0,0,0,0,0,0,0,0,0,0,0,0,0,0,0,0,0,0,0,0,0,0,0,0,0,0,0],"id":18,"left_children":[1,3,5,7,9,11,13,15,17,19,21,23,25,27,29,31,33,35,37,39,41,43,45,47,49,51,53,55,57,-1,-1,-1,-1,-1,-1,-1,-1,-1,-1,-1,-1,-1,-1,-1,-1,-1,-1,-1,-1,-1,-1,-1,-1,-1,-1,-1,-1,-1,-1],"loss_changes":[1.5320872E10,1.0073069E9,1.2459622E9,3.550264E7,1.518912E8,1.793106E8,1.6060416E8,9.203701E5,6.542324E6,4.802227E7,2.3672E7,7.542374E7,3.6939264E7,3.1657984E7,5.651456E6,4.3495723E4,1.11044875E5,1.37537E6,1.271272E6,9.626104E6,1.0890688E7,6.225024E6,5.353792E6,1.1775744E7,9.664256E6,5.143808E6,6.312192E6,1.2312576E7,4.127232E6,0E0,0E0,0E0,0E0,0E0,0E0,0E0,0E0,0E0,0E0,0E0,0E0,0E0,0E0,0E0,0E0,0E0,0E0,0E0,0E0,0E0,0E0,0E0,0E0,0E0,0E0,0E0,0E0,0E0,0E0],"parents":[2147483647,0,0,1,1,2,2,3,3,4,4,5,5,6,6,7,7,8,8,9,9,10,10,11,11,12,12,13,13,14,14,15,15,16,16,17,17,18,18,19,19,20,20,21,21,22,22,23,23,24,24,25,25,26,26,27,27,28,28],"right_children":[2,4,6,8,10,12,14,16,18,20,22,24,26,28,30,32,34,36,38,40,42,44,46,48,50,52,54,56,58,-1,-1,-1,-1,-1,-1,-1,-1,-1,-1,-1,-1,-1,-1,-1,-1,-1,-1,-1,-1,-1,-1,-1,-1,-1,-1,-1,-1,-1,-1],"split_conditions":[1.2669846E-1,-9.078283E-2,1.3100919E0,-4.4022608E-1,1.1875676E0,8.3679336E-1,2.318137E0,-5.996522E-1,-3.695663E-1,-3.7628195E-1,-2.0746394E-1,5.7850087E-1,6.2064755E-1,1.7556418E0,2.868127E0,-6.7730623E-1,-5.7937306E-1,-5.117532E-1,-2.7161014E-1,4.9868196E-1,3.1748918E-1,1.9841099E0,2.0582342E0,5.8986664E-1,9.323471E-1,2.157655E0,1.4899886E0,1.3028722E0,1.3284988E0,2.855599E1,3.1192448E1,-4.7310037E-3,1.397047E-1,3.468136E-1,6.956845E-1,1.1566591E0,1.9677067E0,2.808113E0,4.436744E0,2.9247384E0,5.120831E0,5.7228594E0,7.937973E0,8.330353E0,1.1467522E1,1.1868496E1,1.4792198E1,1.0229592E1,1.3029115E1,1.508972E1,1.7733759E1,1.5679742E1,1.8369598E1,1.9427113E1,2.1808056E1,2.1239965E1,2.4257093E1,2.4648163E1,2.6885582E1],"split_indices":[0,1,0,1,1,3,0,1,0,0,0,0,0,0,0,1,0,0,0,1,1,1,1,1,0,1,3,1,3,0,0,0,0,0,0,0,0,0,0,0,0,0,0,0,0,0,0,0,0,0,0,0,0,0,0,0,0,0,0],"split_type":[0,0,0,0,0,0,0,0,0,0,0,0,0,0,0,0,0,0,0,0,0,0,0,0,0,0,0,0,0,0,0,0,0,0,0,0,0,0,0,0,0,0,0,0,0,0,0,0,0,0,0,0,0,0,0,0,0,0,0],"sum_hessian":[1.9327E4,1.4037E4,5.29E3,1.1518E4,2.519E3,2.583E3,2.707E3,1.0448E4,1.07E3,1.825E3,6.94E2,1.389E3,1.194E3,1.663E3,1.044E3,1.0071E4,3.77E2,8.54E2,2.16E2,8.27E2,9.98E2,3.49E2,3.45E2,6.72E2,7.17E2,4.47E2,7.47E2,7.78E2,8.85E2,7.66E2,2.78E2,9.859E3,2.12E2,2.12E2,1.65E2,4.61E2,3.93E2,1.29E2,8.7E1,4.75E2,3.52E2,3.66E2,6.32E2,2.49E2,1E2,2.11E2,1.34E2,3.66E2,3.06E2,4.11E2,3.06E2,2.52E2,1.95E2,3.56E2,3.91E2,4.44E2,3.34E2,5.31E2,3.54E2],"tree_param":{"num_deleted":"0","num_feature":"6","num_nodes":"59","size_leaf_vector":"0"}},{"base_weights":[6.865926E2,1.5237148E2,2.14576E3,2.4658342E1,7.1635065E2,1.6828864E3,2.6286897E3,5.90778E0,2.9178384E2,4.1505878E2,9.224035E2,1.436404E3,1.9521304E3,2.432274E3,2.898551E3,5.1790226E-1,1.04472916E2,2.1898225E2,4.6415448E2,2.5522684E2,5.341159E2,7.038132E2,1.1342324E3,1.1820056E3,1.6427192E3,1.7380254E3,2.1102175E3,2.1307373E1,2.4915764E3,2.7373251E1,2.981633E1,-3.4191927E-3,3.1394833E-1,7.9785764E-1,1.4427141E0,1.3142958E0,2.4389107E0,4.05728E0,5.2828507E0,1.7106903E0,3.6030571E0,4.137928E0,7.049655E0,5.8262033E0,8.014001E0,9.568519E0,1.2654248E1,1.039176E1,1.3224044E1,1.5268085E1,1.8016191E1,1.59306965E1,1.8275742E1,1.986809E1,2.216899E1,2.3989597E1,2.5985867E1],"categories":[],"categories_nodes":[],"categories_segments":[],"categories_sizes":[],"default_left":[0,0,0,0,0,0,0,0,0,0,0,0,0,0,0,0,0,0,0,0,0,0,0,0,0,0,0,0,0,0,0,0,0,0,0,0,0,0,0,0,0,0,0,0,0,0,0,0,0,0,0,0,0,0,0,0,0],"id":19,"left_children":[1,3,5,7,9,11,13,15,17,19,21,23,25,27,29,31,33,35,37,39,41,43,45,47,49,51,53,-1,55,-1,-1,-1,-1,-1,-1,-1,-1,-1,-1,-1,-1,-1,-1,-1,-1,-1,-1,-1,-1,-1,-1,-1,-1,-1,-1,-1,-1],"loss_changes":[1.501163E10,1.0154267E9,1.1492434E9,5.7578904E7,1.6121677E8,1.7226342E8,1.2673434E8,5.707208E6,9.360196E6,2.0015536E7,7.074086E7,7.054182E7,3.8912E7,2.0923392E7,6.009856E6,2.7046188E5,5.35748E5,1.12815E6,6.21224E5,3.953182E6,1.2165936E7,8.556992E6,1.7010368E7,1.1098816E7,1.1247104E7,4.098048E6,5.06112E6,0E0,5.857792E6,0E0,0E0,0E0,0E0,0E0,0E0,0E0,0E0,0E0,0E0,0E0,0E0,0E0,0E0,0E0,0E0,0E0,0E0,0E0,0E0,0E0,0E0,0E0,0E0,0E0,0E0,0E0,0E0],"parents":[2147483647,0,0,1,1,2,2,3,3,4,4,5,5,6,6,7,7,8,8,9,9,10,10,11,11,12,12,13,13,14,14,15,15,16,16,17,17,18,18,19,19,20,20,21,21,22,22,23,23,24,24,25,25,26,26,28,28],"right_children":[2,4,6,8,10,12,14,16,18,20,22,24,26,28,30,32,34,36,38,40,42,44,46,48,50,52,54,-1,56,-1,-1,-1,-1,-1,-1,-1,-1,-1,-1,-1,-1,-1,-1,-1,-1,-1,-1,-1,-1,-1,-1,-1,-1,-1,-1,-1,-1],"split_conditions":[1.8135011E-1,-2.0260572E-1,1.4251382E0,-4.9345878E-1,-3.9619738E-1,8.3679336E-1,2.318137E0,-6.0253054E-1,-3.1097785E-1,-5.823835E-1,4.5706415E-1,6.044373E-1,7.5125563E-1,8.2460546E-1,1.3673477E0,-7.034521E-1,-3.7933025E-1,-4.463637E-1,-1.335916E-1,8.3679336E-1,9.137295E-1,-1.335916E-1,-1.5165444E-1,2.4072903E-1,9.8190415E-1,4.2427203E-1,1.3882957E0,2.1307373E1,1.3284988E0,2.7373251E1,2.981633E1,-3.4191927E-3,3.1394833E-1,7.9785764E-1,1.4427141E0,1.3142958E0,2.4389107E0,4.05728E0,5.2828507E0,1.7106903E0,3.6030571E0,4.137928E0,7.049655E0,5.8262033E0,8.014001E0,9.568519E0,1.2654248E1,1.039176E1,1.3224044E1,1.5268085E1,1.8016191E1,1.59306965E1,1.8275742E1,1.986809E1,2.216899E1,2.3989597E1,2.5985867E1],"split_indices":[0,3,0,0,0,3,0,0,0,0,3,0,0,3,3,3,3,3,0,3,3,0,0,3,0,0,3,0,3,0,0,0,0,0,0,0,0,0,0,0,0,0,0,0,0,0,0,0,0,0,0,0,0,0,0,0,0],"split_type":[0,0,0,0,0,0,0,0,0,0,0,0,0,0,0,0,0,0,0,0,0,0,0,0,0,0,0,0,0,0,0,0,0,0,0,0,0,0,0,0,0,0,0,0,0,0,0,0,0,0,0,0,0,0,0,0,0],"sum_hessian":[1.9257E4,1.4097E4,5.16E3,1.1495E4,2.602E3,2.637E3,2.523E3,1.0742E4,7.53E2,1.058E3,1.544E3,1.38E3,1.257E3,1.466E3,1.057E3,1.0186E4,5.56E2,5.31E2,2.22E2,4.53E2,6.05E2,7.62E2,7.82E2,6.21E2,7.59E2,5.39E2,7.18E2,2.47E2,1.219E3,3.71E2,6.86E2,9.911E3,2.75E2,3.45E2,2.11E2,1.19E2,4.12E2,1.2E2,1.02E2,2.53E2,2E2,3.57E2,2.48E2,3.43E2,4.19E2,3.36E2,4.46E2,3.12E2,3.09E2,4.45E2,3.14E2,2.13E2,3.26E2,3.42E2,3.76E2,6.66E2,5.53E2],"tree_param":{"num_deleted":"0","num_feature":"6","num_nodes":"57","size_leaf_vector":"0"}},{"base_weights":[6.752711E2,1.404655E2,2.097221E3,1.8718512E1,7.0398517E2,1.6185187E3,2.5637969E3,2.6249657E0,2.0088498E2,5.6885675E2,1.1206774E3,1.3736417E3,1.9006948E3,2.3068499E3,2.7969019E3,-3.7042435E-2,6.230479E1,1.727764E2,4.2571356E2,4.0662814E2,7.27067E2,9.376881E2,1.3023794E3,1.122581E3,1.5883434E3,1.7047964E3,2.077065E3,2.0544254E1,2.3770742E3,2.6603058E1,2.9443848E1,-4.103804E-3,1.895169E-1,4.7786647E-1,9.523114E-1,1.2870802E0,2.2896106E0,3.4063077E0,4.544537E0,3.0357769E0,5.329774E0,6.100863E0,8.2914295E0,8.398818E0,1.1117401E1,1.2124812E1,1.536691E1,9.914969E0,1.2686122E1,1.4846677E1,1.7491411E1,1.56921215E1,1.8321924E1,1.9385279E1,2.188385E1,2.2889296E1,2.4977915E1],"categories":[],"categories_nodes":[],"categories_segments":[],"categories_sizes":[],"default_left":[0,0,0,0,0,0,0,0,0,0,0,0,0,0,0,0,0,0,0,0,0,0,0,0,0,0,0,0,0,0,0,0,0,0,0,0,0,0,0,0,0,0,0,0,0,0,0,0,0,0,0,0,0,0,0,0,0],"id":20,"left_children":[1,3,5,7,9,11,13,15,17,19,21,23,25,27,29,31,33,35,37,39,41,43,45,47,49,51,53,-1,55,-1,-1,-1,-1,-1,-1,-1,-1,-1,-1,-1,-1,-1,-1,-1,-1,-1,-1,-1,-1,-1,-1,-1,-1,-1,-1,-1,-1],"loss_changes":[1.4624241E10,9.5883584E8,1.1697828E9,3.3696476E7,1.391726E8,1.7683763E8,1.5287091E8,1.6779679E6,5.822648E6,4.787987E7,1.8961216E7,7.335782E7,3.8057984E7,1.7647104E7,2.0168704E7,7.169392E4,2.1104038E5,2.028062E6,9.7064E4,1.1934096E7,1.0826144E7,4.275392E6,4.498208E6,1.1108096E7,9.889536E6,7.074048E6,5.458432E6,0E0,4.795392E6,0E0,0E0,0E0,0E0,0E0,0E0,0E0,0E0,0E0,0E0,0E0,0E0,0E0,0E0,0E0,0E0,0E0,0E0,0E0,0E0,0E0,0E0,0E0,0E0,0E0,0E0,0E0,0E0],"parents":[2147483647,0,0,1,1,2,2,3,3,4,4,5,5,6,6,7,7,8,8,9,9,10,10,11,11,12,12,13,13,14,14,15,15,16,16,17,17,18,18,19,19,20,20,21,21,22,22,23,23,24,24,25,25,26,26,28,28],"right_children":[2,4,6,8,10,12,14,16,18,20,22,24,26,28,30,32,34,36,38,40,42,44,46,48,50,52,54,-1,56,-1,-1,-1,-1,-1,-1,-1,-1,-1,-1,-1,-1,-1,-1,-1,-1,-1,-1,-1,-1,-1,-1,-1,-1,-1,-1,-1,-1],"split_conditions":[1.4036135E-1,-9.078283E-2,1.3100919E0,-4.0139905E-1,1.2875766E0,8.3679336E-1,2.0911937E0,-5.8729815E-1,-3.0287275E-1,-3.2603022E-1,-2.0746394E-1,5.618274E-1,7.5125563E-1,7.796626E-1,2.5862541E0,-6.449504E-1,-5.4486835E-1,-4.8002744E-1,-2.1857953E-1,4.9868196E-1,4.1573328E-1,1.9576368E0,2.2976675E0,5.5162793E-1,9.469363E-1,2.0358791E0,1.4899886E0,2.0544254E1,1.4899886E0,2.6603058E1,2.9443848E1,-4.103804E-3,1.895169E-1,4.7786647E-1,9.523114E-1,1.2870802E0,2.2896106E0,3.4063077E0,4.544537E0,3.0357769E0,5.329774E0,6.100863E0,8.2914295E0,8.398818E0,1.1117401E1,1.2124812E1,1.536691E1,9.914969E0,1.2686122E1,1.4846677E1,1.7491411E1,1.56921215E1,1.8321924E1,1.9385279E1,2.188385E1,2.2889296E1,2.4977915E1],"split_indices":[0,1,0,1,1,3,0,1,0,0,0,0,0,3,0,1,0,0,0,1,1,1,1,1,0,1,3,0,3,0,0,0,0,0,0,0,0,0,0,0,0,0,0,0,0,0,0,0,0,0,0,0,0,0,0,0,0],"split_type":[0,0,0,0,0,0,0,0,0,0,0,0,0,0,0,0,0,0,0,0,0,0,0,0,0,0,0,0,0,0,0,0,0,0,0,0,0,0,0,0,0,0,0,0,0,0,0,0,0,0,0,0,0,0,0,0,0],"sum_hessian":[1.923E4,1.3975E4,5.255E3,1.1493E4,2.482E3,2.596E3,2.659E3,1.0561E4,9.32E2,1.876E3,6.06E2,1.393E3,1.203E3,1.27E3,1.389E3,1.0111E4,4.5E2,8.3E2,1.02E2,9.28E2,9.48E2,3.05E2,3.01E2,6.45E2,7.48E2,5.75E2,6.28E2,2.83E2,9.87E2,7.31E2,6.58E2,9.917E3,1.94E2,3.14E2,1.36E2,4.67E2,3.63E2,2.9E1,7.3E1,5.13E2,4.15E2,4.45E2,5.03E2,1.99E2,1.06E2,2.22E2,7.9E1,3.44E2,3.01E2,4.61E2,2.87E2,2.85E2,2.9E2,2.88E2,3.4E2,5.82E2,4.05E2],"tree_param":{"num_deleted":"0","num_feature":"6","num_nodes":"57","size_leaf_vector":"0"}},{"base_weights":[6.7529504E2,1.2053974E2,2.0227056E3,2.1890196E1,6.1321515E2,1.496588E3,2.4990925E3,4.187807E0,2.5203787E2,3.459221E2,7.96229E2,1.060815E3,1.6620706E3,2.2405706E3,2.757849E3,2.6375315E-1,9.024403E1,1.9791133E2,4.359927E2,2.3964856E2,4.6738513E2,5.991123E2,9.806082E2,9.029355E2,1.2728075E3,1.4205062E3,1.7945957E3,1.979263E3,2.3230283E3,2.6252766E3,2.9113722E1,-3.3652175E-3,2.763452E-1,6.957013E-1,1.2833471E0,1.2177027E0,2.3076136E0,3.5319958E0,4.6945534E0,1.2055701E0,3.1679602E0,3.191728E0,5.961664E0,5.1478686E0,6.8987527E0,8.619516E0,1.1251081E1,7.3844943E0,9.410648E0,1.1565146E1,1.3795726E1,1.2261768E1,1.5588154E1,1.5968523E1,1.9483433E1,1.8480244E1,2.0675451E1,2.2259966E1,2.4432407E1,2.5415579E1,2.7313795E1],"categories":[],"categories_nodes":[],"categories_segments":[],"categories_sizes":[],"default_left":[0,0,0,0,0,0,0,0,0,0,0,0,0,0,0,0,0,0,0,0,0,0,0,0,0,0,0,0,0,0,0,0,0,0,0,0,0,0,0,0,0,0,0,0,0,0,0,0,0,0,0,0,0,0,0,0,0,0,0,0,0],"id":21,"left_children":[1,3,5,7,9,11,13,15,17,19,21,23,25,27,29,31,33,35,37,39,41,43,45,47,49,51,53,55,57,59,-1,-1,-1,-1,-1,-1,-1,-1,-1,-1,-1,-1,-1,-1,-1,-1,-1,-1,-1,-1,-1,-1,-1,-1,-1,-1,-1,-1,-1,-1,-1],"loss_changes":[1.441422E10,6.6394125E8,1.4058353E9,4.637515E7,1.1120941E8,1.9113882E8,1.9115827E8,3.5696895E6,8.00862E6,1.1866904E7,4.854995E7,2.3584512E7,5.946061E7,2.7313152E7,2.2276096E7,1.6613288E5,3.541015E5,1.54768E6,3.43956E5,4.528048E6,8.055288E6,4.665616E6,1.0980928E7,1.983104E6,2.29072E6,1.6660864E7,3.4800896E7,3.73248E5,7.625216E6,1.55136E5,0E0,0E0,0E0,0E0,0E0,0E0,0E0,0E0,0E0,0E0,0E0,0E0,0E0,0E0,0E0,0E0,0E0,0E0,0E0,0E0,0E0,0E0,0E0,0E0,0E0,0E0,0E0,0E0,0E0,0E0,0E0],"parents":[2147483647,0,0,1,1,2,2,3,3,4,4,5,5,6,6,7,7,8,8,9,9,10,10,11,11,12,12,13,13,14,14,15,15,16,16,17,17,18,18,19,19,20,20,21,21,22,22,23,23,24,24,25,25,26,26,27,27,28,28,29,29],"right_children":[2,4,6,8,10,12,14,16,18,20,22,24,26,28,30,32,34,36,38,40,42,44,46,48,50,52,54,56,58,60,-1,-1,-1,-1,-1,-1,-1,-1,-1,-1,-1,-1,-1,-1,-1,-1,-1,-1,-1,-1,-1,-1,-1,-1,-1,-1,-1,-1,-1,-1,-1],"split_conditions":[3.105804E-2,-2.2698154E-1,1.1711006E0,-5.203215E-1,-4.675224E-1,3.2909128E-1,2.0502048E0,-6.0507786E-1,-3.1097785E-1,-5.823835E-1,3.2909128E-1,4.080618E-1,4.972181E-1,7.796626E-1,2.5862541E0,-7.034521E-1,-3.7933025E-1,-4.391271E-1,-2.1857953E-1,6.071277E-1,6.7568463E-1,-1.9565365E-1,-2.0746394E-1,-3.387955E-2,6.759938E-1,1.0097091E0,1.0097091E0,1.4620049E0,1.4899886E0,1.3502085E0,2.9113722E1,-3.3652175E-3,2.763452E-1,6.957013E-1,1.2833471E0,1.2177027E0,2.3076136E0,3.5319958E0,4.6945534E0,1.2055701E0,3.1679602E0,3.191728E0,5.961664E0,5.1478686E0,6.8987527E0,8.619516E0,1.1251081E1,7.3844943E0,9.410648E0,1.1565146E1,1.3795726E1,1.2261768E1,1.5588154E1,1.5968523E1,1.9483433E1,1.8480244E1,2.0675451E1,2.2259966E1,2.4432407E1,2.5415579E1,2.7313795E1],"split_indices":[0,3,0,0,0,3,0,0,0,0,3,0,0,3,0,3,3,3,0,3,3,0,0,3,0,3,3,0,3,3,0,0,0,0,0,0,0,0,0,0,0,0,0,0,0,0,0,0,0,0,0,0,0,0,0,0,0,0,0,0,0],"split_type":[0,0,0,0,0,0,0,0,0,0,0,0,0,0,0,0,0,0,0,0,0,0,0,0,0,0,0,0,0,0,0,0,0,0,0,0,0,0,0,0,0,0,0,0,0,0,0,0,0,0,0,0,0,0,0,0,0,0,0,0,0],"sum_hessian":[1.9283E4,1.366E4,5.623E3,1.1382E4,2.278E3,2.674E3,2.949E3,1.057E4,8.12E2,9.27E2,1.351E3,7.38E2,1.936E3,1.48E3,1.469E3,1.011E4,4.6E2,6.29E2,1.83E2,4.96E2,4.31E2,6.55E2,6.96E2,4.26E2,3.12E2,6.9E2,1.246E3,3.61E2,1.119E3,7.98E2,6.71E2,9.894E3,2.16E2,3E2,1.6E2,1.91E2,4.38E2,5.6E1,1.27E2,1.96E2,3E2,2.02E2,2.29E2,3.43E2,3.12E2,3.86E2,3.1E2,8.4E1,3.42E2,1.55E2,1.57E2,2.91E2,3.99E2,5.5E2,6.96E2,1.54E2,2.07E2,6.3E2,4.89E2,4.6E2,3.38E2],"tree_param":{"num_deleted":"0","num_feature":"6","num_nodes":"61","size_leaf_vector":"0"}},{"base_weights":[6.6705505E2,1.4004106E2,2.0585007E3,2.3841217E1,6.753708E2,1.613328E3,2.5434587E3,5.8530216E0,2.9016733E2,3.9608426E2,8.898038E2,1.1404896E3,1.7552659E3,2.3560027E3,2.8089944E3,3.7738553E-1,9.845533E1,2.212492E2,4.6819086E2,2.8361453E2,5.5177765E2,6.7670905E2,1.0856952E3,9.8061084E2,1.3483705E3,1.5469756E3,1.9234586E3,2.058291E1,2.4151812E3,2.6516926E1,2.8890661E1,-3.2407737E-3,2.9020342E-1,7.425996E-1,1.3743532E0,1.3034533E0,2.4552672E0,4.2458444E0,5.3346643E0,1.9922984E0,3.9035175E0,4.236862E0,7.012334E0,5.6284547E0,7.710973E0,9.268277E0,1.2045273E1,8.891274E0,1.0554223E1,1.2174817E1,1.42904415E1,1.3472854E1,1.6779797E1,1.7349134E1,2.0663076E1,2.2964323E1,2.4917284E1],"categories":[],"categories_nodes":[],"categories_segments":[],"categories_sizes":[],"default_left":[0,0,0,0,0,0,0,0,0,0,0,0,0,0,0,0,0,0,0,0,0,0,0,0,0,0,0,0,0,0,0,0,0,0,0,0,0,0,0,0,0,0,0,0,0,0,0,0,0,0,0,0,0,0,0,0,0],"id":22,"left_children":[1,3,5,7,9,11,13,15,17,19,21,23,25,27,29,31,33,35,37,39,41,43,45,47,49,51,53,-1,55,-1,-1,-1,-1,-1,-1,-1,-1,-1,-1,-1,-1,-1,-1,-1,-1,-1,-1,-1,-1,-1,-1,-1,-1,-1,-1,-1,-1],"loss_changes":[1.4137219E10,8.698619E8,1.1392512E9,5.5048532E7,1.490089E8,1.8350029E8,1.1946496E8,5.458426E6,8.816008E6,1.8842704E7,5.812339E7,1.998176E7,7.143475E7,2.129664E7,5.476352E6,2.0424433E5,5.56619E5,1.128838E6,3.4848E5,5.61464E6,8.394272E6,6.852736E6,1.2721536E7,1.566496E6,1.17456E6,2.2696192E7,2.7954176E7,0E0,5.531648E6,0E0,0E0,0E0,0E0,0E0,0E0,0E0,0E0,0E0,0E0,0E0,0E0,0E0,0E0,0E0,0E0,0E0,0E0,0E0,0E0,0E0,0E0,0E0,0E0,0E0,0E0,0E0,0E0],"parents":[2147483647,0,0,1,1,2,2,3,3,4,4,5,5,6,6,7,7,8,8,9,9,10,10,11,11,12,12,13,13,14,14,15,15,16,16,17,17,18,18,19,19,20,20,21,21,22,22,23,23,24,24,25,25,26,26,28,28],"right_children":[2,4,6,8,10,12,14,16,18,20,22,24,26,28,30,32,34,36,38,40,42,44,46,48,50,52,54,-1,56,-1,-1,-1,-1,-1,-1,-1,-1,-1,-1,-1,-1,-1,-1,-1,-1,-1,-1,-1,-1,-1,-1,-1,-1,-1,-1,-1,-1],"split_conditions":[1.4036135E-1,-2.0260572E-1,1.4251382E0,-4.8905888E-1,-3.8925013E-1,3.919351E-1,2.318137E0,-6.0507786E-1,-2.841152E-1,-5.4486835E-1,4.5706415E-1,4.972181E-1,7.5125563E-1,8.2460546E-1,1.3673477E0,-7.034521E-1,-3.7933025E-1,-4.463637E-1,-1.0279215E-1,8.3679336E-1,7.552868E-1,-1.335916E-1,-1.5860169E-1,2.9157966E-1,7.406032E-1,1.0405596E0,1.0714104E0,2.058291E1,1.8204364E0,2.6516926E1,2.8890661E1,-3.2407737E-3,2.9020342E-1,7.425996E-1,1.3743532E0,1.3034533E0,2.4552672E0,4.2458444E0,5.3346643E0,1.9922984E0,3.9035175E0,4.236862E0,7.012334E0,5.6284547E0,7.710973E0,9.268277E0,1.2045273E1,8.891274E0,1.0554223E1,1.2174817E1,1.42904415E1,1.3472854E1,1.6779797E1,1.7349134E1,2.0663076E1,2.2964323E1,2.4917284E1],"split_indices":[0,3,0,0,0,3,0,0,0,0,3,0,0,3,3,3,3,3,0,3,3,0,0,0,0,3,3,0,0,0,0,0,0,0,0,0,0,0,0,0,0,0,0,0,0,0,0,0,0,0,0,0,0,0,0,0,0],"split_type":[0,0,0,0,0,0,0,0,0,0,0,0,0,0,0,0,0,0,0,0,0,0,0,0,0,0,0,0,0,0,0,0,0,0,0,0,0,0,0,0,0,0,0,0,0,0,0,0,0,0,0,0,0,0,0,0,0],"sum_hessian":[1.9278E4,1.3983E4,5.295E3,1.149E4,2.493E3,2.763E3,2.532E3,1.0764E4,7.26E2,1.084E3,1.409E3,6.4E2,2.123E3,1.49E3,1.042E3,1.0164E4,6E2,5.25E2,2.01E2,6.31E2,4.53E2,6.77E2,7.32E2,3.65E2,2.75E2,9.53E2,1.17E3,2.53E2,1.237E3,3.63E2,6.79E2,9.922E3,2.42E2,3.72E2,2.28E2,1.12E2,4.13E2,1.25E2,7.6E1,3.54E2,2.77E2,2.46E2,2.07E2,3.1E2,3.67E2,3.17E2,4.15E2,1.7E2,1.95E2,1.11E2,1.64E2,3.82E2,5.71E2,5.1E2,6.6E2,4.97E2,7.4E2],"tree_param":{"num_deleted":"0","num_feature":"6","num_nodes":"57","size_leaf_vector":"0"}},{"base_weights":[6.58777E2,1.4000111E2,2.0383835E3,2.3669113E1,6.716829E2,1.5669374E3,2.4821743E3,5.8388033E0,2.8251312E2,3.626077E2,8.585911E2,1.33613E3,1.8338191E3,2.2248665E3,2.7033164E3,4.7094467E-1,1.0017348E2,2.1306306E2,4.4216525E2,2.410691E2,4.755043E2,7.187065E2,1.1597554E3,1.0953729E3,1.5312927E3,1.5617401E3,1.9418962E3,2.1256057E3,2.4117502E1,2.5509933E1,2.8357092E3,-3.3243904E-3,2.9558167E-1,7.54784E-1,1.3852117E0,1.2579308E0,2.3787081E0,3.8783712E0,5.056537E0,1.6265147E0,3.3781958E0,3.6566076E0,6.3539624E0,6.122125E0,8.352758E0,1.0046853E1,1.3059157E1,9.816306E0,1.2411031E1,1.3330162E1,1.601898E1,1.4494533E1,1.6481236E1,1.8075304E1,2.0506617E1,2.0020285E1,2.23648E1,2.6944845E1,2.908724E1],"categories":[],"categories_nodes":[],"categories_segments":[],"categories_sizes":[],"default_left":[0,0,0,0,0,0,0,0,0,0,0,0,0,0,0,0,0,0,0,0,0,0,0,0,0,0,0,0,0,0,0,0,0,0,0,0,0,0,0,0,0,0,0,0,0,0,0,0,0,0,0,0,0,0,0,0,0,0,0],"id":23,"left_children":[1,3,5,7,9,11,13,15,17,19,21,23,25,27,29,31,33,35,37,39,41,43,45,47,49,51,53,55,-1,-1,57,-1,-1,-1,-1,-1,-1,-1,-1,-1,-1,-1,-1,-1,-1,-1,-1,-1,-1,-1,-1,-1,-1,-1,-1,-1,-1,-1,-1],"loss_changes":[1.3817863E10,8.6788595E8,1.0999726E9,5.313856E7,1.4520806E8,1.5530342E8,1.4853018E8,5.4551325E6,8.132976E6,1.2934336E7,6.526579E7,6.3023616E7,3.1812864E7,1.82656E7,2.212864E7,2.3822525E5,5.38804E5,1.093698E6,5.76512E5,3.435046E6,8.408704E6,1.2821184E7,9.929856E6,9.058624E6,8.476288E6,9.28448E5,8.627968E6,6.92224E6,0E0,0E0,1.024E5,0E0,0E0,0E0,0E0,0E0,0E0,0E0,0E0,0E0,0E0,0E0,0E0,0E0,0E0,0E0,0E0,0E0,0E0,0E0,0E0,0E0,0E0,0E0,0E0,0E0,0E0,0E0,0E0],"parents":[2147483647,0,0,1,1,2,2,3,3,4,4,5,5,6,6,7,7,8,8,9,9,10,10,11,11,12,12,13,13,14,14,15,15,16,16,17,17,18,18,19,19,20,20,21,21,22,22,23,23,24,24,25,25,26,26,27,27,30,30],"right_children":[2,4,6,8,10,12,14,16,18,20,22,24,26,28,30,32,34,36,38,40,42,44,46,48,50,52,54,56,-1,-1,58,-1,-1,-1,-1,-1,-1,-1,-1,-1,-1,-1,-1,-1,-1,-1,-1,-1,-1,-1,-1,-1,-1,-1,-1,-1,-1,-1,-1],"split_conditions":[1.4036135E-1,-2.0260572E-1,1.2915195E0,-4.8905888E-1,-4.3811244E-1,8.3679336E-1,2.0502048E0,-6.0253054E-1,-3.1097785E-1,-5.823835E-1,8.3679336E-1,5.618274E-1,5.287123E-1,1.3882957E0,2.5168278E0,-7.034521E-1,-3.7933025E-1,-4.463637E-1,-1.335916E-1,9.137295E-1,9.137295E-1,-1.335916E-1,-1.5165444E-1,2.986215E-1,3.2909128E-1,1.3882957E0,1.3882957E0,1.6391133E0,2.4117502E1,2.5509933E1,1.4366664E0,-3.3243904E-3,2.9558167E-1,7.54784E-1,1.3852117E0,1.2579308E0,2.3787081E0,3.8783712E0,5.056537E0,1.6265147E0,3.3781958E0,3.6566076E0,6.3539624E0,6.122125E0,8.352758E0,1.0046853E1,1.3059157E1,9.816306E0,1.2411031E1,1.3330162E1,1.601898E1,1.4494533E1,1.6481236E1,1.8075304E1,2.0506617E1,2.0020285E1,2.23648E1,2.6944845E1,2.908724E1],"split_indices":[0,3,0,0,0,3,0,0,0,0,3,0,0,3,0,3,3,3,0,3,3,0,0,3,3,3,3,0,0,0,3,0,0,0,0,0,0,0,0,0,0,0,0,0,0,0,0,0,0,0,0,0,0,0,0,0,0,0,0],"split_type":[0,0,0,0,0,0,0,0,0,0,0,0,0,0,0,0,0,0,0,0,0,0,0,0,0,0,0,0,0,0,0,0,0,0,0,0,0,0,0,0,0,0,0,0,0,0,0,0,0,0,0,0,0,0,0,0,0,0,0],"sum_hessian":[1.9306E4,1.4031E4,5.275E3,1.1513E4,2.518E3,2.56E3,2.715E3,1.0772E4,7.41E2,9.5E2,1.568E3,1.376E3,1.184E3,1.26E3,1.455E3,1.0193E4,5.79E2,5.18E2,2.23E2,4.59E2,4.91E2,1.073E3,4.95E2,6.19E2,7.57E2,3.41E2,8.43E2,8.31E2,4.29E2,6.86E2,7.69E2,9.92E3,2.73E2,3.54E2,2.25E2,1.16E2,4.02E2,1.24E2,9.9E1,2.55E2,2.04E2,2.93E2,1.98E2,5.64E2,5.09E2,2.44E2,2.51E2,3.52E2,2.67E2,2.04E2,5.53E2,1.56E2,1.85E2,3.85E2,4.58E2,4.02E2,4.29E2,2.75E2,4.94E2],"tree_param":{"num_deleted":"0","num_feature":"6","num_nodes":"59","size_leaf_vector":"0"}},{"base_weights":[6.4967206E2,1.1620922E2,1.961333E3,3.1891489E1,6.23183E2,1.4564528E3,2.425675E3,5.095502E0,2.3269229E2,4.315723E2,7.63347E2,1.185855E3,1.6713984E3,2.1703013E3,2.6784902E3,2.4094477E0,2.3896013E1,1.8743027E2,2.7670953E2,5.3835803E2,2.700859E2,5.112157E2,8.20843E2,1.0900021E3,1.299558E3,1.5828868E3,1.8289215E1,2.0580164E1,2.3005913E1,2.5448915E1,2.8313364E1,1.6522162E-2,7.5007245E-2,1.3379906E-1,3.4688708E-1,1.37388E0,2.2454553E0,1.6864398E0,3.276376E0,4.3883214E0,6.3413806E0,2.2662823E0,3.033369E0,4.754868E0,6.196359E0,8.622711E0,6.161266E0,1.1411833E1,9.229955E0,1.3871413E1,1.1114599E1,1.3771176E1,1.6156658E1],"categories":[],"categories_nodes":[],"categories_segments":[],"categories_sizes":[],"default_left":[0,0,0,0,0,0,0,0,0,0,0,0,0,0,0,0,0,0,0,0,0,0,0,0,0,0,0,0,0,0,0,0,0,0,0,0,0,0,0,0,0,0,0,0,0,0,0,0,0,0,0,0,0],"id":24,"left_children":[1,3,5,7,9,11,13,15,17,19,21,23,25,27,29,31,33,35,37,39,41,43,45,47,49,51,-1,-1,-1,-1,-1,-1,-1,-1,-1,-1,-1,-1,-1,-1,-1,-1,-1,-1,-1,-1,-1,-1,-1,-1,-1,-1,-1],"loss_changes":[1.3424645E10,5.830476E8,1.2968899E9,6.293097E7,5.1907264E7,1.527337E8,1.8064384E8,5.2109412E5,2.691544E6,1.4064E7,1.584544E7,1.1454848E7,1.7740032E7,1.636096E7,2.2342656E7,3.48046E4,1.4594712E5,1.23585E6,3.775232E6,4.440368E6,4.0811E5,5.22732E5,7.203456E6,4.477056E6,7.272E6,4.216576E6,0E0,0E0,0E0,0E0,0E0,0E0,0E0,0E0,0E0,0E0,0E0,0E0,0E0,0E0,0E0,0E0,0E0,0E0,0E0,0E0,0E0,0E0,0E0,0E0,0E0,0E0,0E0],"parents":[2147483647,0,0,1,1,2,2,3,3,4,4,5,5,6,6,7,7,8,8,9,9,10,10,11,11,12,12,13,13,14,14,15,15,16,16,17,17,18,18,19,19,20,20,21,21,22,22,23,23,24,24,25,25],"right_children":[2,4,6,8,10,12,14,16,18,20,22,24,26,28,30,32,34,36,38,40,42,44,46,48,50,52,-1,-1,-1,-1,-1,-1,-1,-1,-1,-1,-1,-1,-1,-1,-1,-1,-1,-1,-1,-1,-1,-1,-1,-1,-1,-1,-1],"split_conditions":[3.105804E-2,-4.675224E-1,1.1711006E0,-6.129514E-1,-3.1097785E-1,4.972181E-1,2.0502048E0,9.2912424E-1,3.0741265E-1,3.1915894E-1,-7.966472E-1,2.7629578E-1,9.196105E-1,1.6391133E0,2.5862541E0,3.0741265E-1,-7.342245E-1,-5.703649E-1,-5.900255E-1,-4.024499E-1,-3.8925013E-1,-9.8391515E-1,8.5365367E-1,8.302446E-1,8.5365367E-1,-5.469558E-1,1.8289215E1,2.0580164E1,2.3005913E1,2.5448915E1,2.8313364E1,1.6522162E-2,7.5007245E-2,1.3379906E-1,3.4688708E-1,1.37388E0,2.2454553E0,1.6864398E0,3.276376E0,4.3883214E0,6.3413806E0,2.2662823E0,3.033369E0,4.754868E0,6.196359E0,8.622711E0,6.161266E0,1.1411833E1,9.229955E0,1.3871413E1,1.1114599E1,1.3771176E1,1.6156658E1],"split_indices":[0,0,0,0,0,0,0,5,5,4,4,0,0,0,0,5,4,4,0,0,0,4,4,4,4,4,0,0,0,0,0,0,0,0,0,0,0,0,0,0,0,0,0,0,0,0,0,0,0,0,0,0,0],"split_type":[0,0,0,0,0,0,0,0,0,0,0,0,0,0,0,0,0,0,0,0,0,0,0,0,0,0,0,0,0,0,0,0,0,0,0,0,0,0,0,0,0,0,0,0,0,0,0,0,0,0,0,0,0],"sum_hessian":[1.9185E4,1.3639E4,5.546E3,1.1695E4,1.944E3,2.659E3,2.887E3,1.0319E4,1.376E3,8.23E2,1.121E3,1.18E3,1.479E3,1.441E3,1.446E3,9.03E3,1.289E3,6.81E2,6.95E2,4.94E2,3.29E2,2.1E2,9.11E2,6.46E2,5.34E2,9.54E2,5.25E2,7.83E2,6.58E2,7.81E2,6.65E2,7.862E3,1.168E3,6.54E2,6.35E2,2.92E2,3.89E2,2.24E2,4.71E2,2.45E2,2.49E2,1.46E2,1.83E2,1.62E2,4.8E1,7.55E2,1.56E2,4.9E2,1.56E2,3.6E2,1.74E2,1.37E2,8.17E2],"tree_param":{"num_deleted":"0","num_feature":"6","num_nodes":"53","size_leaf_vector":"0"}},{"base_weights":[6.474887E2,1.375619E2,1.9902665E3,1.9264238E1,6.8463885E2,1.4880483E3,2.398444E3,3.4643896E0,2.1235526E2,5.3530194E2,1.059346E3,1.2920839E3,1.7622405E3,2.1402812E3,2.6378345E3,5.295613E-1,8.264107E1,1.7431146E2,4.059248E2,4.0164966E2,7.108731E2,8.84795E2,1.2303915E3,1.0689733E3,1.5014528E3,1.5570079E3,1.9119486E3,2.0236489E3,2.2952651E3,2.4732332E3,2.7593577E3,-3.0105032E-3,3.2071677E-1,5.8613807E-1,1.11553E0,1.3475755E0,2.2716897E0,3.2039893E0,4.3662415E0,3.2499838E0,5.328833E0,5.852145E0,7.806286E0,7.700165E0,1.0605844E1,1.1004801E1,1.4082617E1,9.568352E0,1.2137735E1,1.41632805E1,1.6133522E1,1.435269E1,1.6862541E1,1.8219452E1,2.0347277E1,1.893536E1,2.1706612E1,2.1906288E1,2.419896E1,2.381498E1,2.5845688E1,2.6857275E1,2.9051516E1],"categories":[],"categories_nodes":[],"categories_segments":[],"categories_sizes":[],"default_left":[0,0,0,0,0,0,0,0,0,0,0,0,0,0,0,0,0,0,0,0,0,0,0,0,0,0,0,0,0,0,0,0,0,0,0,0,0,0,0,0,0,0,0,0,0,0,0,0,0,0,0,0,0,0,0,0,0,0,0,0,0,0,0],"id":25,"left_children":[1,3,5,7,9,11,13,15,17,19,21,23,25,27,29,31,33,35,37,39,41,43,45,47,49,51,53,55,57,59,61,-1,-1,-1,-1,-1,-1,-1,-1,-1,-1,-1,-1,-1,-1,-1,-1,-1,-1,-1,-1,-1,-1,-1,-1,-1,-1,-1,-1,-1,-1,-1,-1],